<?xml version="1.0"?>
<opencv_storage>
<opencv_ml_svm>
  <format>3</format>
  <svmType>C_SVC</svmType>
  <kernel>
    <type>LINEAR</type></kernel>
  <C>1.</C>
  <term_criteria><iterations>1000</iterations></term_criteria>
  <var_count>972</var_count>
  <class_count>6</class_count>
  <class_labels type_id="opencv-matrix">
    <rows>6</rows>
    <cols>1</cols>
    <dt>i</dt>
    <data>
      0 1 2 3 4 5</data></class_labels>
  <sv_total>15</sv_total>
  <support_vectors>
    <_>
      -6.06356794e-03 1.98149309e-03 7.12906756e-03 1.29575171e-02
      1.25783971e-02 -1.28870364e-02 -1.44404937e-02 -1.27118472e-02
      -1.72862615e-02 -1.55687314e-02 -5.36288973e-03 -2.70359247e-04
      4.87313373e-03 5.95650263e-02 -3.87810245e-02 -6.11888133e-02
      -7.25129992e-02 -3.95920463e-02 7.37585127e-03 -3.88503750e-03
      -1.07490178e-02 -5.16869221e-03 5.25824912e-03 -3.14687379e-02
      -2.31808983e-02 -2.11443156e-02 -4.82199015e-03 -4.35707755e-02
      2.88245827e-02 4.45012376e-02 9.15293321e-02 1.38664380e-01
      3.56489345e-02 -6.55035395e-03 -3.18964496e-02 -7.16823265e-02
      -1.28998533e-01 -6.95318803e-02 -5.79029694e-02 1.81529950e-02
      9.61684361e-02 6.17741272e-02 -7.79201090e-02 -1.28269270e-01
      -1.25927687e-01 -1.06558293e-01 -5.53636849e-02 -7.17582852e-02
      3.86315724e-03 8.32459629e-02 -4.87375967e-02 -4.61906865e-02
      -5.47229052e-02 -8.88395533e-02 -2.28027049e-02 1.13361366e-02
      1.12839779e-02 2.23971922e-02 1.11850515e-01 3.26240286e-02
      -5.70325367e-03 -1.53659144e-02 -4.10816781e-02 -9.43821967e-02
      -4.47108299e-02 -3.10833603e-02 9.27967671e-03 1.08375274e-01
      8.32375735e-02 -5.40117547e-02 -1.14728376e-01 -1.45937353e-01
      -6.13109879e-02 -3.91661897e-02 -4.71624024e-02 -4.71743308e-02
      5.36201596e-02 1.71469047e-03 -6.96702860e-03 -2.31095720e-02
      -6.78892210e-02 1.00374147e-02 5.50341653e-03 -2.84922519e-03
      4.37563838e-04 4.62390594e-02 -1.26694320e-02 -1.54023124e-02
      -1.88265759e-02 -2.40396257e-04 1.69409420e-02 1.00195094e-03
      1.43351569e-03 -3.41983908e-03 -1.45587958e-02 -6.02307022e-02
      -5.70560880e-02 -4.62062582e-02 2.06009671e-03 6.86616451e-02
      -7.76717486e-03 -2.42544129e-03 -2.95034163e-02 -5.02783209e-02
      -2.37521511e-02 -2.34979857e-02 -1.73006635e-02 5.90224639e-02
      -5.50019406e-02 -4.27687392e-02 -6.45380616e-02 1.23482547e-03
      9.62696150e-02 2.29444392e-02 -3.44563425e-02 -5.35466336e-02
      -4.39664274e-02 -5.94798438e-02 -1.88235361e-02 -3.29803601e-02
      4.66911867e-02 3.43860090e-02 -6.96739405e-02 -7.91475773e-02
      -8.58210102e-02 -4.89993729e-02 -8.78606271e-03 -3.58443037e-02
      -5.01924288e-03 -3.41209546e-02 5.23933955e-02 1.15231313e-02
      -4.76008393e-02 -3.91360112e-02 -1.61305051e-02 -3.38566303e-02
      -1.95809696e-02 -2.59682778e-02 -1.68522857e-02 8.70739296e-02
      3.52836102e-02 -8.55257921e-03 -2.72367671e-02 -4.55925204e-02
      -5.52348383e-02 -4.19137441e-02 -3.80104743e-02 -1.88676380e-02
      6.71563596e-02 3.69726717e-02 3.88295879e-03 -4.12099473e-02
      -1.15236588e-01 -3.43908765e-03 1.68300774e-02 1.42146340e-02
      3.82222096e-03 6.06708191e-02 2.87919160e-04 -2.15960350e-02
      -2.76512001e-02 -9.41425487e-02 2.90013887e-02 4.88124788e-04
      4.72473260e-03 -4.11607139e-03 -1.77738983e-02 -3.22833136e-02
      -3.37222703e-02 -2.79345475e-02 8.38845409e-03 4.18853462e-02
      -3.76395769e-02 -2.01443136e-02 -6.57212287e-02 -7.02848211e-02
      -4.74442402e-03 -1.23534799e-02 -3.37674771e-03 9.23401713e-02
      -1.12544931e-01 -3.89578715e-02 -6.56126952e-03 -3.47261853e-03
      3.90380137e-02 4.21609059e-02 3.19128409e-02 1.78187024e-02
      -2.76507642e-02 -1.75682008e-02 -9.46593378e-03 -2.40016519e-03
      7.85557437e-04 2.92706564e-02 -3.18968520e-02 -4.11115550e-02
      -5.25865629e-02 -4.71635535e-02 -1.70484986e-02 -5.27582765e-02
      -7.24900560e-03 -7.40314946e-02 -1.26737636e-02 3.85326371e-02
      -2.93472949e-02 -3.64354551e-02 -1.99645814e-02 -7.53172711e-02
      -4.47723046e-02 -1.63658317e-02 -1.38181131e-02 7.45551959e-02
      1.02677114e-01 8.67049992e-02 5.39535768e-02 -8.36612191e-03
      -2.32830122e-02 -3.54682864e-03 1.68324783e-04 1.14154536e-02
      7.26852342e-02 1.97240375e-02 1.03365735e-03 -2.59011649e-02
      -1.06680825e-01 3.70510301e-04 3.48692164e-02 2.41976511e-02
      -5.77354664e-03 3.06616947e-02 -1.71738863e-02 -4.52290736e-02
      -2.18604226e-02 -5.08110411e-02 5.43825002e-03 2.56940089e-02
      6.95418147e-03 1.56199681e-02 -3.55451331e-02 4.83984081e-03
      2.90778745e-02 1.65981688e-02 -1.62874628e-02 -6.43995684e-03
      -2.55609006e-02 -1.36424070e-02 -2.79444940e-02 -1.33222090e-02
      1.35220671e-02 4.89661982e-03 6.88022096e-03 2.61470210e-02
      -1.47131011e-01 -5.24895601e-02 5.26278419e-03 8.68974812e-03
      6.64004087e-02 6.69054538e-02 6.29129857e-02 3.37956101e-02
      -6.64980710e-02 -5.09373210e-02 -9.83907934e-03 7.81433936e-03
      4.90228785e-03 1.10046901e-02 1.05889896e-02 9.19686630e-03
      7.01656891e-03 -3.59355733e-02 -4.61201444e-02 -2.09522136e-02
      2.82509765e-03 -3.12083010e-02 5.51083833e-02 4.64562923e-02
      -3.33461817e-03 5.30036166e-03 -5.19866534e-02 -5.70623688e-02
      -8.04064274e-02 -2.79464182e-02 2.25132350e-02 6.84017316e-02
      1.50021076e-01 1.43283769e-01 8.21130425e-02 -3.54794115e-02
      -5.10361753e-02 -1.59925688e-02 2.17026062e-02 3.64351161e-02
      3.84211242e-02 1.35142310e-02 2.02857633e-03 -1.06788324e-02
      -6.03767708e-02 4.88165161e-03 2.09751334e-02 1.03229275e-02
      9.36305267e-04 3.03727351e-02 -1.03185317e-02 -1.51687022e-02
      6.40530931e-03 -3.45430896e-02 -1.64310709e-02 2.22504921e-02
      9.90092568e-03 2.38894019e-02 -4.17998098e-02 1.44170094e-02
      6.97125047e-02 5.14691211e-02 1.47339739e-02 4.13932167e-02
      1.08533055e-02 1.11618824e-02 2.23588292e-02 7.19376560e-03
      1.57390740e-02 4.11214046e-02 5.26054651e-02 4.07552943e-02
      -1.07136115e-01 -1.75371971e-02 6.52171066e-03 6.07324345e-03
      2.31485683e-02 2.26522535e-02 2.44931225e-02 1.33572910e-02
      -2.98838317e-02 -6.47596940e-02 -1.40172746e-02 9.26401000e-03
      9.18081962e-03 1.02943527e-02 1.01345628e-02 7.73383304e-03
      3.02915648e-03 -7.85085261e-02 -4.51942272e-02 2.77423356e-02
      7.31433136e-03 2.34472263e-03 -2.49353028e-03 -2.07394082e-03
      -5.81767689e-03 -1.93928443e-02 -6.04747608e-02 -8.54808763e-02
      -4.15495113e-02 1.41952667e-04 2.65097339e-02 4.30938117e-02
      5.95505387e-02 6.11802787e-02 2.97692437e-02 -1.04783870e-01
      -1.86711103e-02 -1.31452000e-02 1.79799795e-02 3.82724553e-02
      4.02768366e-02 8.87494627e-03 4.48176544e-03 -5.03798248e-03
      -8.75120051e-03 3.13033862e-03 5.04896604e-02 1.80180166e-02
      -1.21430801e-02 -2.40170639e-02 -9.36574303e-03 1.23499874e-02
      1.88300796e-02 -5.25109693e-02 -1.38074183e-03 7.47165270e-03
      5.86023275e-03 1.54711036e-02 -3.48236635e-02 1.70400012e-02
      5.18825203e-02 3.08694150e-02 2.93179275e-03 7.41339996e-02
      2.36764140e-02 1.02769081e-02 2.74977349e-02 1.24047194e-02
      1.65369753e-02 4.91827577e-02 1.06942780e-01 8.60723630e-02
      7.39839748e-02 1.37909595e-02 -5.70534263e-03 1.34811876e-03
      6.04741974e-03 8.28224525e-04 2.48661153e-02 7.97801167e-02
      1.14029072e-01 -4.55719866e-02 -4.66025760e-03 3.52458307e-03
      5.04207797e-03 1.93796551e-03 1.57735753e-03 1.66932319e-03
      -3.00252275e-03 -5.72828166e-02 -5.25344275e-02 6.04644753e-02
      1.64329272e-03 -9.43206158e-03 -3.45129706e-02 -2.89474502e-02
      -3.31547931e-02 -5.02206013e-02 -1.08333357e-01 3.29948356e-03
      -1.81043884e-04 -1.22892829e-02 -1.21413674e-02 -5.93207181e-02
      -4.60197106e-02 -2.59667207e-02 -6.21527899e-03 -5.68372710e-03
      -8.36882275e-04 1.54104724e-03 -6.37554913e-05 8.39578826e-03
      7.53317680e-03 -2.62143882e-03 7.30669638e-03 8.01707990e-03
      -5.38264364e-02 7.58440560e-03 -6.69846870e-03 3.10032479e-02
      -3.93249989e-02 -5.59902005e-02 -3.17463018e-02 5.22142742e-03
      1.63538028e-02 2.81598475e-02 1.91318542e-02 -4.12226245e-02
      1.47237265e-02 4.14958037e-03 -4.48377989e-03 -3.44910164e-04
      3.20872618e-03 4.16864008e-02 6.27497882e-02 4.04143184e-02
      8.20987765e-03 -7.57584872e-04 6.20555598e-03 2.64539360e-03
      3.32135335e-03 1.59774479e-02 6.47311285e-02 5.74801341e-02
      7.27230310e-02 3.62605788e-02 8.71668570e-04 5.93297696e-03
      1.91700477e-02 -6.42810133e-04 4.75486815e-02 9.94514227e-02
      1.29053921e-01 5.18102646e-02 2.52074338e-02 2.90460996e-02
      3.08132805e-02 3.24868336e-02 1.41185261e-02 1.82275698e-02
      3.60040297e-03 3.54463942e-02 -2.34650373e-02 5.26942592e-03
      1.55734988e-02 2.98346728e-02 8.97481292e-02 3.06935031e-02
      1.71298592e-03 -9.65676270e-03 -3.39496620e-02 -8.10882151e-02
      -4.25462872e-02 -4.86433730e-02 5.21111116e-03 1.42848685e-01
      6.30165115e-02 -6.57980740e-02 -1.01388678e-01 -1.11054033e-01
      -7.82920346e-02 -3.81576009e-02 -4.56626415e-02 -3.37034203e-02
      7.27151334e-02 -1.53407315e-02 -1.14295222e-02 -1.60807110e-02
      -4.96290699e-02 -2.97093801e-02 7.54741766e-03 3.05859814e-03
      1.88781209e-02 1.49857059e-01 8.60838071e-02 1.73623990e-02
      -8.84458423e-03 -5.30717708e-02 -1.22571997e-01 -4.26642187e-02
      -1.49730183e-02 3.66066396e-02 6.14471100e-02 5.63439652e-02
      -5.17880060e-02 -1.15951359e-01 -1.52853802e-01 -6.29642904e-02
      -4.35828529e-02 -6.60005137e-02 -7.47895837e-02 4.08356264e-02
      -1.84851084e-02 -3.71857248e-02 -6.68410659e-02 -1.14413559e-01
      1.20179867e-02 2.81517929e-03 1.07087465e-02 1.30674094e-02
      7.20875487e-02 7.08393380e-02 3.33673991e-02 2.59462912e-02
      1.78720206e-02 -3.88462618e-02 1.85636859e-02 4.08637263e-02
      7.73755088e-02 1.12257607e-01 6.71834797e-02 -1.52239297e-02
      -1.15036024e-02 -4.00746986e-02 -5.00945449e-02 1.32613943e-03
      6.18278980e-03 9.25282761e-03 4.37493436e-02 -4.87783924e-03
      -3.55206132e-02 -5.15014604e-02 -1.33021578e-01 -2.79744398e-02
      -2.02820357e-02 -2.75091659e-02 4.63876750e-05 1.32630751e-01
      1.99630111e-02 -1.67051312e-02 -2.34748740e-02 -2.67510656e-02
      -8.66321772e-02 -2.79419031e-02 -1.84710082e-02 1.05658674e-03
      8.10010880e-02 -8.48842319e-03 -9.21102706e-03 -1.96607076e-02
      -7.31427670e-02 -1.35678193e-02 -1.46723411e-03 7.74363987e-03
      -2.82725622e-03 7.00144619e-02 9.99011938e-03 -1.56787597e-02
      -4.30843793e-03 -4.67778146e-02 -3.02952342e-02 -1.12708937e-02
      -1.26792854e-02 2.09016819e-03 6.32404983e-02 4.50812839e-02
      -6.43340545e-03 -3.28677110e-02 -5.50895482e-02 -6.03823625e-02
      -4.27396633e-02 -5.52108735e-02 -3.58380862e-02 3.31127606e-02
      4.56695296e-02 8.62270687e-03 -7.56687298e-02 -8.78154412e-02
      -9.62558854e-03 1.17339194e-02 1.38979107e-02 -2.17160420e-03
      6.33364320e-02 4.29201033e-03 -1.62629671e-02 -3.58446725e-02
      -2.96925586e-02 -1.29818069e-02 8.10859818e-03 1.44109428e-02
      3.00348494e-02 5.44313043e-02 1.11880172e-02 -2.25712582e-02
      -1.54309506e-02 -3.02795116e-02 -7.93104153e-03 6.88779168e-03
      1.07327383e-02 6.74709212e-03 6.32558987e-02 2.44674087e-02
      5.83256874e-03 -4.62702066e-02 -5.96761853e-02 -1.85262896e-02
      -6.85855804e-04 -3.09933256e-03 -3.84830218e-03 -3.59657826e-03
      -9.35871387e-04 -1.89697591e-03 -1.91717930e-02 -3.38278152e-02
      -2.95544937e-02 -5.77762257e-03 9.60527977e-04 4.07576235e-03
      5.07899486e-02 -2.10447586e-03 -4.23858874e-03 -7.17069022e-03
      -3.03070955e-02 -1.83024872e-02 9.72050801e-03 3.22429091e-02
      -7.32013071e-03 7.40515962e-02 2.86503788e-02 -2.02060752e-02
      1.65574020e-03 -7.53975883e-02 -2.46869586e-02 5.69040654e-03
      7.27056060e-03 6.16749469e-03 1.03278542e-02 3.59296985e-02
      3.81602906e-02 2.36095358e-02 -1.12860929e-02 -4.36188560e-03
      -4.27292427e-03 -5.05895028e-03 7.87032768e-03 7.92798102e-02
      4.62273359e-02 1.44154867e-02 -4.06619273e-02 -1.03684582e-01
      2.56774807e-03 4.85233180e-02 3.16278934e-02 -1.04862545e-02
      4.09113895e-03 -3.51026691e-02 -5.10574281e-02 -5.23322709e-02
      -2.13128757e-02 2.05437336e-02 6.69858679e-02 4.73464020e-02
      5.69875985e-02 -4.88250256e-02 -4.61764671e-02 8.34613293e-03
      1.95009541e-02 -2.88978107e-02 -1.43632079e-02 2.87784799e-03
      5.40784933e-03 2.15200102e-03 1.63283553e-02 1.20489346e-02
      1.27001153e-02 -1.39864953e-02 -6.96047843e-02 -2.80098710e-02
      1.91796366e-02 -6.17486890e-03 -1.20278876e-02 -1.75231304e-02
      -8.82969331e-03 -1.13185858e-02 -3.27404365e-02 -4.49019894e-02
      -2.27102824e-02 2.81096995e-02 1.10285729e-02 1.08831581e-02
      -4.87598814e-02 -3.11507992e-02 -3.70934000e-03 -7.00810924e-03
      -5.45492545e-02 -2.60856953e-02 4.60181711e-03 1.10690659e-02
      -9.45791230e-03 3.50686982e-02 7.20354728e-03 -1.10134305e-02
      -2.89005227e-03 -3.66500281e-02 -6.65915459e-02 -2.94410512e-02
      -2.31297873e-02 4.89621190e-03 -6.44800765e-03 5.91338985e-02
      6.61405250e-02 3.32770534e-02 -3.02784909e-02 -2.43173428e-02
      -1.24092679e-02 6.01283554e-03 2.06611864e-02 1.57509111e-02
      6.96507515e-03 4.32821270e-03 -2.05499842e-03 -5.48812672e-02
      -5.35428198e-03 2.78834868e-02 2.13856902e-03 -8.77846219e-03
      -1.53061124e-02 -4.71487343e-02 -4.23084311e-02 -1.04376981e-02
      -5.82227409e-02 -1.53524317e-02 2.16085184e-02 1.25604887e-02
      5.11046220e-03 -7.56914690e-02 -6.64875954e-02 5.47668077e-02
      6.89317062e-02 1.92497168e-02 7.65897483e-02 2.24582963e-02
      2.26479322e-02 2.81841382e-02 -7.83681497e-03 2.05611289e-02
      6.89382032e-02 1.45693362e-01 1.00837030e-01 -4.95039746e-02
      1.51804741e-02 -4.13795235e-03 -8.15860368e-03 -1.93208810e-02
      -1.13247987e-02 -8.94327927e-03 -1.90927088e-02 -6.37698174e-02
      -5.83853163e-02 6.42991532e-03 6.29288703e-03 3.56378150e-03
      -9.09710750e-02 -6.21826090e-02 2.51934165e-03 8.06090422e-03
      -5.50371967e-02 1.43345678e-02 -3.66959925e-04 3.41775385e-03
      2.76309997e-03 4.42341994e-03 5.70500502e-03 2.00162362e-02
      8.37161914e-02 1.32738099e-01 -1.20067306e-01 -5.80355711e-02
      -3.01958546e-02 -8.70194938e-03 -2.73255035e-02 1.42953722e-02
      2.21539121e-02 -9.34849028e-04 -1.06314227e-01 -2.51651574e-02
      -7.04740286e-02 -1.68652162e-02 1.77139528e-02 1.43272271e-02
      -1.38233345e-05 -3.86970560e-03 -2.49989964e-02 -8.92762244e-02
      -3.86220403e-02 -4.20838222e-02 -1.35978125e-02 -1.09869111e-02
      -1.20574115e-02 -7.14392588e-03 6.69690967e-03 2.62325574e-02
      -6.90047219e-02 -5.08094989e-02 -1.70757882e-02 -1.23172114e-02
      -2.98644695e-02 -1.37397975e-01 -8.34190324e-02 4.19585779e-02
      4.81368341e-02 -1.71463545e-02 4.93510906e-03 -1.16890145e-03
      1.42422356e-02 2.44621020e-02 -1.67733766e-02 1.79008823e-02
      8.19468498e-02 2.12718308e-01 4.23053429e-02 3.59779112e-02
      -1.96654014e-02 -1.03472751e-02 1.09590171e-02 2.26108227e-02
      6.92511164e-03 5.58438040e-02 1.50474802e-01 1.26615331e-01
      -4.05873321e-02 -1.83666665e-02 -5.74472081e-03 -1.65590774e-02
      -6.94739968e-02 -3.10674198e-02 2.45451718e-03 1.11249089e-02
      -1.17641808e-02 -6.62893057e-03 -5.06991660e-03 -2.04856740e-03
      2.90051103e-03 -1.16759297e-02 3.92346596e-03 2.24891473e-02
      1.74610168e-01 1.84997782e-01 3.68331894e-02 4.67077363e-03
      3.39692808e-03 5.45800012e-03 4.25329572e-03 2.68462859e-03
      6.37633214e-03 9.78413150e-02 1.47817761e-01 -1.02154672e-01
      -8.21951926e-02 -2.76168697e-02 5.03778225e-04 1.99794024e-03
      -3.56750190e-03 -1.28222862e-04 -7.63076870e-03 -1.42190382e-01
      -1.27306031e-02 -1.13300011e-01 -3.47092338e-02 -5.33658899e-02
      -5.93808070e-02 -2.49363948e-02 9.40186321e-04 3.34971249e-02
      -8.59992653e-02 -4.79458570e-02 -7.83041492e-02 -1.68871190e-02
      -2.33636219e-02 -2.91138776e-02 -2.02970742e-03 -1.03978615e-03
      8.64211004e-03 1.63221620e-02 1.02793742e-02 -1.95146333e-02
      -6.11090939e-03 8.46349820e-03 2.17416720e-03 6.67410530e-03
      3.61742117e-02 1.52225107e-01 5.33586480e-02 1.05122766e-02
      2.59258524e-02 -1.86619852e-02 3.23747359e-02 7.66506344e-02
      1.61035378e-02 9.26938727e-02 1.94195315e-01 6.79446235e-02
      5.57519048e-02 1.63539536e-02 2.55156979e-02 4.82582226e-02
      5.52236959e-02 1.74316633e-02 3.09511274e-02 1.27294250e-02
      5.14438041e-02 -1.21557349e-02 -5.17769344e-03 -5.27489465e-03
      -1.07435777e-03 -1.00231729e-02 -7.04424048e-04 1.39229721e-03
      9.52457562e-02 1.41707420e-01 6.08274378e-02 3.17682279e-03
      1.40331583e-02 2.55121924e-02 2.62859240e-02 6.44468563e-03
      9.38367750e-03 1.41196892e-01 1.25057578e-01 1.08142374e-02
      6.18534023e-03 7.33683771e-03 1.62023734e-02 1.91311631e-02
      -8.52654164e-04 5.45276515e-03 1.19597670e-02 -7.61434156e-03</_>
    <_>
      -1.42661259e-02 -2.69658607e-03 9.84145608e-03 1.90714821e-02
      1.00605395e-02 -6.43541198e-03 -1.47272069e-02 -1.60601214e-02
      -1.84584968e-02 -2.75857933e-02 -2.36735325e-02 -1.22566260e-02
      1.56686548e-02 7.77514726e-02 -1.17347250e-02 -5.09599820e-02
      -5.81755862e-02 -3.57650295e-02 -8.06063414e-03 -1.62409395e-02
      -5.32053637e-05 1.46256015e-03 3.04249395e-02 -1.91150326e-02
      -3.29417177e-02 -1.49416737e-02 -1.94386430e-02 -8.16264004e-02
      1.48545927e-03 1.46601936e-02 4.63266037e-02 8.06553289e-02
      4.71529663e-02 1.68827344e-02 -1.84652060e-02 -7.66317621e-02
      -1.10251680e-01 -9.85271558e-02 -4.94921580e-02 4.34622057e-02
      1.01718575e-01 4.04809862e-02 -3.97183076e-02 -7.75991827e-02
      -1.08948044e-01 -4.75594141e-02 -4.93820570e-02 1.52552491e-02
      5.31841554e-02 7.91722164e-02 -2.83679105e-02 -7.36104101e-02
      -6.34774864e-02 -6.43815324e-02 -4.81378473e-02 -1.42819751e-02
      -4.26249467e-02 -4.03976021e-03 7.75304958e-02 3.64713594e-02
      2.30335668e-02 1.21271582e-02 -4.82229590e-02 -1.23856805e-01
      -9.78764147e-02 -5.99034838e-02 4.54163514e-02 1.64910093e-01
      8.14347714e-02 1.72464680e-02 -4.51823846e-02 -1.36617675e-01
      -2.07044389e-02 -1.73383951e-02 6.43634470e-04 2.37786248e-02
      8.24143663e-02 5.44063840e-03 -5.93857467e-03 -4.26934250e-02
      -5.89135401e-02 -5.48723945e-03 -1.26669751e-02 -7.76808057e-03
      1.36633089e-03 4.95895259e-02 -1.05877127e-02 -2.09516510e-02
      -2.13437546e-02 -9.61371418e-03 -3.34448554e-03 -1.44704189e-02
      1.08080171e-02 2.68745655e-03 2.43008956e-02 -3.07301879e-02
      -7.49077499e-02 -2.70322673e-02 -2.52772700e-02 4.32543159e-02
      1.12485990e-03 2.56313081e-03 -5.29547269e-03 -1.59839392e-02
      -9.19887424e-03 -2.75062602e-02 -4.09474317e-03 2.74420250e-02
      -7.50052854e-02 -7.96832964e-02 -2.67402418e-02 2.89897621e-02
      1.12273753e-01 2.42510857e-03 -2.92746425e-02 -4.19371352e-02
      -5.46119213e-02 -3.66564170e-02 -2.02844962e-02 1.78776365e-02
      5.99319078e-02 2.81557161e-02 -4.26114462e-02 -8.35615993e-02
      -8.42654482e-02 -3.14757600e-02 -3.10017373e-02 -2.34849304e-02
      -9.62514058e-03 -1.36943636e-02 3.94886583e-02 6.84297690e-03
      -3.00835557e-02 -2.90584862e-02 -1.14766741e-02 -5.41419573e-02
      -3.73133123e-02 -1.83009375e-02 2.20471248e-02 1.22080840e-01
      2.85220481e-02 4.89729084e-03 -2.91286912e-02 -6.80081248e-02
      -2.02463903e-02 -1.79254077e-02 4.68329666e-03 2.74995845e-02
      6.21373802e-02 3.34747531e-03 -1.64578613e-02 -5.56242429e-02
      -6.74701408e-02 -3.77942510e-02 -4.83733043e-03 6.45325473e-03
      7.84448255e-03 3.67290825e-02 8.83115572e-04 -8.64000060e-03
      6.26977161e-03 -1.98808070e-02 6.61350647e-03 -1.98899070e-03
      6.45777443e-03 5.14022540e-04 2.13283417e-03 -1.24687450e-02
      -3.84289771e-02 -1.31431939e-02 -2.51448969e-03 4.38899100e-02
      -9.09567624e-03 -6.27912255e-03 -1.61704086e-02 -3.00452206e-02
      2.24290043e-03 -1.22062368e-02 1.20778065e-02 4.58652526e-02
      -5.75585440e-02 -2.27066316e-02 -1.31641608e-02 -1.12547874e-02
      -8.49986542e-03 2.78805159e-02 2.75086220e-02 1.95311271e-02
      -1.87166724e-02 -6.32210821e-03 -5.00741787e-03 8.45803134e-03
      1.33903865e-02 2.50465460e-02 -1.56712346e-02 -5.62942773e-02
      -4.77864370e-02 -2.55129263e-02 -1.91074554e-02 -7.17901066e-02
      -3.66625711e-02 -2.21993886e-02 1.33895380e-02 3.85388769e-02
      -1.11121051e-02 -4.98799514e-03 -1.67916808e-02 -6.81261644e-02
      -7.14160874e-02 -4.00097258e-02 -8.45073629e-03 1.99500490e-02
      6.21658117e-02 5.41289970e-02 4.86317053e-02 -9.24852584e-03
      -9.21474490e-03 -4.87521291e-03 2.15342315e-03 9.07793548e-03
      3.79128568e-02 -4.44112557e-05 -9.36628692e-03 -1.39012774e-02
      -3.26131023e-02 -3.95519696e-02 -1.01034967e-02 2.40880698e-02
      3.16366963e-02 3.89362723e-02 1.15136951e-02 -2.00935843e-04
      2.37326249e-02 -1.70120504e-02 -6.13248982e-02 -1.79104600e-03
      3.24810222e-02 5.83254136e-02 6.23627938e-02 3.64276282e-02
      3.33720520e-02 3.08278762e-03 -7.12984353e-02 1.27731878e-02
      -9.85704269e-03 -7.36406539e-03 -9.49714705e-03 -1.18223699e-02
      1.02614276e-02 7.87037797e-03 1.25114843e-02 1.70248821e-02
      -9.72210541e-02 -2.60751601e-02 -1.07763754e-02 -6.82439003e-03
      1.90151087e-03 4.35287543e-02 4.56418619e-02 2.57355031e-02
      -4.73107360e-02 -2.96148919e-02 -9.38304607e-03 4.37104376e-03
      1.19858712e-03 5.49332332e-03 6.32601511e-03 7.52562704e-03
      3.59950890e-03 -2.29163598e-02 -7.14081228e-02 -4.65517379e-02
      -1.67332590e-02 -4.04678006e-03 3.43942679e-02 3.29093263e-02
      1.34360315e-02 2.16187071e-02 -2.15621348e-02 -2.55139563e-02
      -4.33326289e-02 -3.65877971e-02 5.59345027e-03 2.37533953e-02
      8.68076906e-02 6.99442402e-02 4.72627878e-02 -5.80446236e-03
      -1.91455986e-02 1.43327692e-03 7.45244883e-03 1.37561271e-02
      7.28061330e-03 2.33813212e-03 6.49328856e-03 -1.37486309e-02
      -3.67255397e-02 -3.28832678e-02 -4.37109172e-03 1.89967770e-02
      2.62928028e-02 5.38662411e-02 1.22098317e-02 8.58310983e-03
      1.43800247e-02 3.14377993e-03 -6.70335442e-02 1.42624183e-02
      5.06311692e-02 8.66795629e-02 7.52746612e-02 6.04408160e-02
      6.11975864e-02 1.31105185e-02 -7.31246397e-02 -9.26493783e-04
      2.35721515e-03 4.16377047e-03 1.70779172e-02 1.33819645e-02
      9.86444112e-03 2.68018860e-02 2.27696113e-02 -2.86398716e-02
      -3.62414867e-02 -6.32093195e-03 -3.05964699e-04 4.36630158e-04
      5.34792617e-03 1.43478764e-02 1.68471467e-02 7.48291379e-03
      -1.95147973e-02 -4.49013747e-02 -1.59810018e-02 9.37821809e-03
      4.55437228e-03 7.10720289e-03 7.26457778e-03 8.56885966e-03
      5.56121999e-03 -3.76051106e-02 -4.11408544e-02 7.56971771e-03
      1.33352773e-02 5.49701601e-03 3.26008908e-03 1.63473585e-03
      -1.01321877e-03 -1.15397421e-03 -2.48500686e-02 -2.57666521e-02
      -2.02522233e-06 -4.37577209e-03 9.65480041e-03 5.22590009e-03
      2.75817309e-02 3.32129635e-02 1.06764408e-02 -5.98150603e-02
      -7.78173329e-04 2.33307537e-02 1.63629819e-02 1.56542119e-02
      1.00985216e-02 2.53147050e-03 1.50377834e-02 2.62783421e-03
      1.86560210e-03 -8.96416232e-03 4.22890373e-02 2.13890634e-02
      -9.31381539e-04 -9.86735802e-03 -3.82931554e-03 7.08418526e-03
      2.64752042e-02 -3.53350416e-02 -2.17646714e-02 1.12943240e-02
      1.60112977e-02 3.22378911e-02 2.69028228e-02 2.68670116e-02
      3.89001332e-02 1.06082950e-02 -7.11346641e-02 -2.71378621e-03
      -8.85183457e-03 4.25327366e-04 1.61062051e-02 8.22073780e-03
      5.90280350e-03 2.94839162e-02 5.27586974e-02 1.86188817e-02
      2.47187652e-02 -1.20871346e-02 -1.32936677e-02 -6.84057688e-03
      -1.26346406e-02 -4.49446170e-03 1.25835892e-02 4.83713411e-02
      5.30528501e-02 -2.85576098e-02 -7.70512968e-03 5.93966991e-03
      3.78228235e-03 2.68056476e-03 2.11671321e-03 2.53397156e-03
      1.78378087e-03 -2.74480637e-02 -4.96806651e-02 1.73045304e-02
      1.99375600e-02 4.60815057e-03 6.27783360e-03 4.70896892e-04
      -7.06248218e-03 -4.96188551e-03 -4.58633304e-02 -1.75764728e-02
      -7.97708146e-03 -5.09766582e-03 -8.54645204e-03 -2.37285718e-03
      -3.86800361e-03 -1.69375073e-03 2.19585054e-05 -1.20240939e-03
      1.09248760e-03 -2.47846078e-03 8.81003309e-03 3.91845312e-03
      1.73224334e-03 9.10581264e-04 1.00951670e-02 1.08938254e-02
      -3.56005095e-02 1.23106549e-03 5.02841920e-02 1.73600186e-02
      -9.83957015e-03 -2.09373925e-02 -1.50880180e-02 -1.86010438e-03
      3.01718749e-02 1.41326874e-03 -2.30539776e-03 4.16670041e-03
      1.00977626e-02 -1.56778414e-02 -8.70929286e-03 1.75415014e-04
      6.83992263e-03 1.72724649e-02 1.15652103e-02 2.11184705e-03
      -1.45040201e-02 -3.26309586e-03 2.02730950e-03 -3.32023879e-03
      -1.43561827e-03 8.53351969e-03 3.56160179e-02 1.96024328e-02
      4.98147449e-03 -2.08336096e-02 -4.01319154e-02 -3.84630859e-02
      -4.39200029e-02 -1.54899042e-02 1.59389656e-02 4.92730774e-02
      4.83436845e-02 2.86392272e-02 1.00781573e-02 -5.08865342e-03
      -2.24186331e-02 -3.09259966e-02 -4.61681280e-03 6.36166893e-04
      -6.45039324e-03 3.91202513e-03 -4.15765233e-02 -2.10920139e-03
      -2.91183777e-03 1.00997118e-02 5.57381585e-02 3.37504409e-02
      1.69169661e-02 -4.79725393e-04 -4.05194759e-02 -1.11487336e-01
      -8.02094564e-02 -4.04847264e-02 2.60192081e-02 1.44183874e-01
      4.72664759e-02 -8.59234761e-03 -4.18389328e-02 -9.93542746e-02
      -2.57216953e-02 -2.30341405e-02 5.50188357e-03 2.43631192e-02
      7.85403475e-02 -5.58194472e-03 -2.44115368e-02 -2.87217386e-02
      -3.99012826e-02 -6.94384873e-02 -6.03522211e-02 -1.09314546e-01
      -2.97018047e-02 9.95077044e-02 7.42934942e-02 5.21069244e-02
      3.07283215e-02 -6.15352765e-02 -1.24713771e-01 -1.09447464e-01
      -6.71059713e-02 6.73490986e-02 1.26645699e-01 1.01428144e-01
      3.96268256e-02 -4.54598814e-02 -1.28601015e-01 -8.48997012e-03
      -2.70391125e-02 -5.92243019e-03 2.00199485e-02 6.44958168e-02
      -1.98939145e-02 -3.75769287e-03 -7.36917406e-02 -7.12966472e-02
      -7.87107833e-03 -2.82890238e-02 -3.50600779e-02 -6.16672495e-03
      2.66333651e-02 3.85979116e-02 1.92314498e-02 1.10326018e-02
      -1.78192044e-03 -2.59531494e-02 -4.31065746e-02 -3.87912132e-02
      3.62005644e-02 8.60760659e-02 5.59633523e-02 1.75126698e-02
      1.14447176e-02 -7.10233022e-03 2.15393351e-03 -1.63457431e-02
      1.45821820e-03 2.76795984e-03 1.14933336e-02 -3.89415957e-02
      -2.09260900e-02 -2.29176674e-02 -1.09407613e-02 -3.86129618e-02
      -3.80607545e-02 -1.20916646e-02 1.71439555e-02 1.09390788e-01
      9.06089321e-03 -8.68466496e-03 -1.89381726e-02 -3.28292549e-02
      -3.37129459e-02 -1.66413076e-02 1.38500938e-02 3.44072245e-02
      6.04368746e-02 -3.50947003e-03 -4.23728749e-02 -4.38410603e-02
      -5.84068857e-02 -4.05762531e-02 -7.09546637e-03 -2.15086271e-03
      -2.78441608e-03 4.97279726e-02 6.61637960e-03 -1.01613933e-02
      -6.26536133e-03 -2.54424326e-02 -7.59499073e-02 -5.31413741e-02
      -3.02028451e-02 3.87611985e-02 1.31164119e-01 4.29423563e-02
      1.47243589e-02 -4.10904214e-02 -1.11515224e-01 -2.34850533e-02
      -5.06513007e-02 -6.30373973e-03 1.56525206e-02 2.04667263e-02
      -1.20571293e-02 -1.30525304e-05 -5.04372157e-02 -3.08561362e-02
      -6.14555785e-03 -1.32049089e-02 2.19501480e-02 1.76375322e-02
      2.29244716e-02 -2.95925187e-03 -2.89197336e-03 3.27313691e-02
      -4.05127974e-03 -3.43508064e-03 -8.13407358e-03 -5.99282375e-03
      1.32420463e-02 3.43004949e-02 3.44964652e-03 -4.24436573e-03
      -2.90795229e-03 -7.73300231e-03 -2.35004071e-02 -5.58312908e-02
      5.30092046e-03 1.81827846e-03 5.83814783e-03 -4.99871448e-02
      -2.03602109e-02 -2.80132182e-02 6.92831911e-03 -3.54166552e-02
      -1.89096499e-02 8.16300884e-03 3.55996285e-03 -5.48327109e-03
      9.80620505e-04 2.82866298e-03 9.20135342e-03 -2.69855186e-03
      -1.54609028e-02 -4.03424166e-03 1.79939950e-03 7.14920787e-03
      3.42166573e-02 -9.53733979e-04 -1.66198388e-02 -1.57673154e-02
      -2.39439998e-02 -8.12774301e-02 -2.58504711e-02 1.59755454e-03
      1.23122777e-03 5.61141334e-02 2.15610098e-02 -6.50386233e-03
      4.05855739e-04 -5.18833175e-02 -5.59124909e-02 -2.26209164e-02
      1.29342859e-03 1.79476310e-02 2.59565152e-02 2.68129446e-02
      2.41970457e-02 1.63155571e-02 -2.16664393e-02 -2.36669667e-02
      -2.62075309e-02 -2.27111019e-03 1.85472961e-03 1.90978944e-02
      -1.58421751e-02 -7.11988145e-03 -1.64997615e-02 -2.79912148e-02
      -6.60478463e-03 4.83963871e-03 6.07040711e-02 5.31908944e-02
      2.84350887e-02 6.83076330e-04 5.01489965e-03 2.53658127e-02
      -2.93533336e-02 -5.43941259e-02 3.15412506e-02 7.39251152e-02
      1.14651628e-01 8.83989781e-02 3.79079171e-02 3.17080133e-02
      -1.14149386e-02 -8.74884799e-02 -3.55277583e-02 -3.43287028e-02
      3.61670344e-03 8.06907599e-04 -1.81743316e-03 -1.39816292e-02
      -2.56597274e-03 -4.07324918e-03 8.81296024e-03 -2.70181559e-02
      5.13934530e-03 1.88790690e-02 1.23633211e-02 -1.96787878e-03
      2.64421711e-03 9.06474539e-04 5.66526316e-03 -2.09195744e-02
      -4.72306721e-02 2.46577505e-02 2.10043583e-02 2.78369635e-02
      2.05731094e-02 4.94659180e-03 1.62647892e-04 -7.09284283e-03
      -8.28703865e-02 -4.49211970e-02 -1.87769812e-02 2.10396317e-03
      6.49303850e-03 4.85705994e-02 1.41455950e-02 4.77329036e-03
      7.77460774e-03 -6.29285956e-03 -5.05767949e-02 -8.50071944e-03
      4.11724579e-03 3.25690694e-02 2.42948793e-02 4.13318872e-02
      3.82257476e-02 1.84111390e-02 -4.70481738e-02 1.73154175e-02
      2.33055511e-03 2.84046773e-03 1.14396196e-02 5.40007744e-03
      2.51733023e-03 3.92664317e-03 -3.18035600e-03 -6.20066933e-02
      -3.69573161e-02 1.30416341e-02 4.29723598e-02 5.77730425e-02
      5.29350452e-02 7.01749884e-03 6.91881496e-03 1.82452146e-02
      -2.16007121e-02 -5.37515134e-02 4.86289449e-02 9.05951858e-02
      1.23535648e-01 9.05960277e-02 7.14780912e-02 7.97944665e-02
      1.60245188e-02 -5.35883792e-02 -4.29600514e-02 -7.36277644e-03
      5.74275991e-03 2.53968183e-02 2.31428891e-02 1.65352989e-02
      4.23509888e-02 7.28071406e-02 -2.69401930e-02 -9.93356295e-03
      1.57374609e-02 1.05980681e-02 8.43321998e-03 3.85051966e-03
      1.98025745e-03 -9.05438908e-04 -2.38021417e-03 -4.45459299e-02
      -9.19051319e-02 2.68303622e-02 3.13631296e-02 4.72872630e-02
      4.56783697e-02 1.24981413e-02 8.21906328e-03 8.90862104e-03
      -1.05613030e-01 -7.67648593e-02 -2.91225035e-03 1.86347077e-03
      6.00023754e-03 1.71531346e-02 4.54379478e-03 1.07991593e-02
      5.27262725e-02 -3.55818160e-02 -1.53693492e-02 3.61668272e-03
      1.63238659e-03 1.27937496e-02 6.35062810e-03 1.35011096e-02
      1.50515260e-02 1.28896139e-03 -4.85825911e-02 1.00316750e-02
      -5.47410920e-03 3.60025256e-03 1.12818629e-02 4.94818389e-03
      1.02695264e-03 6.70811627e-03 3.57563910e-03 -3.23724896e-02
      1.31692849e-02 4.62716352e-03 2.16394034e-03 -4.51947609e-03
      -9.93502978e-03 -3.11883818e-03 4.59035486e-03 2.14608870e-02
      -1.79069452e-02 -6.99308142e-02 1.66514013e-02 3.08375675e-02
      5.85464425e-02 5.16111739e-02 3.43859158e-02 5.80366813e-02
      2.38164701e-02 -9.13153738e-02 -1.15246773e-02 -5.01028933e-02
      -6.64976705e-03 1.86949261e-02 9.54611506e-03 2.00222060e-03
      3.86902578e-02 9.91662070e-02 3.70709505e-03 -2.59351544e-03
      -5.50418086e-02 -3.33742760e-02 -7.60602672e-03 -1.62762664e-02
      -1.00404741e-02 2.36417167e-02 8.65941867e-02 5.71958385e-02
      -7.26457089e-02 6.07225532e-03 1.10320011e-02 1.87086649e-02
      2.29155682e-02 7.25442916e-03 8.24026670e-03 1.34727675e-02
      -6.82223216e-02 -8.70625153e-02 -1.17432857e-02 -1.36970775e-03
      5.57605131e-03 1.21179959e-02 -2.86091003e-03 1.06115788e-02
      1.00645170e-01 -6.63997792e-03 -3.58095504e-02 -1.10459011e-02
      -6.41049491e-03 7.59732036e-04 7.74754386e-04 -2.87028588e-03
      1.80273829e-03 5.93138225e-02 1.86197236e-02 1.62114277e-02
      -7.81535450e-03 1.02961808e-03 1.74091046e-03 -7.78468559e-04
      -2.89285497e-04 5.25088515e-03 1.08008459e-02 -3.54284942e-02
      7.02040130e-03 2.68125180e-02 1.00174788e-02 -1.71000082e-02
      -2.94038504e-02 -9.91027150e-03 1.51887978e-03 3.17288488e-02
      -9.63377301e-03 8.29796214e-03 7.25545781e-03 5.51156513e-03
      -1.44996373e-02 -1.69261713e-02 -1.74368697e-03 6.19196275e-04
      3.27028357e-03 2.77959788e-03 -1.06772622e-02 -4.20994088e-02
      -1.16438949e-02 2.09969888e-03 -7.62310065e-03 -7.86214694e-03
      1.50453812e-02 9.22495872e-02 2.92295348e-02 1.15875425e-02
      -4.21359241e-02 -7.09136501e-02 -4.29086946e-02 -4.12975140e-02
      -2.44977027e-02 1.91219263e-02 6.90689310e-02 2.51358319e-02
      9.59195569e-03 -1.47298686e-02 -2.64383666e-02 -3.45194787e-02
      -5.96283898e-02 -1.80050787e-02 -3.57287936e-03 -1.85120571e-02
      -8.22064746e-03 -4.38978709e-02 -1.00570600e-02 -3.62259173e-03
      1.95777058e-04 4.64330187e-05 -5.33079542e-03 9.22688807e-04
      5.87204099e-02 1.57255623e-02 -3.57200168e-02 -2.06842609e-02
      -1.33764502e-02 3.18051362e-03 2.30474141e-03 -4.15664399e-03
      2.44644983e-03 8.30852985e-02 1.22686084e-02 -2.59988718e-02
      -8.29836912e-03 -8.33495334e-03 1.46918683e-04 -1.08489264e-02
      -6.31724019e-03 -2.70248274e-03 3.63034499e-03 -6.07648538e-03</_>
    <_>
      -1.78848971e-02 3.08457296e-04 -1.32918982e-02 3.19680572e-03
      2.10580863e-02 5.71374083e-03 1.28324388e-03 1.10106124e-03
      -2.79237162e-02 -1.01102732e-01 -4.23142649e-02 -2.80762967e-02
      -1.29352475e-03 1.08260520e-01 1.40646063e-02 1.19733755e-02
      1.80465181e-03 -7.31520727e-02 -6.96070567e-02 -2.86700553e-03
      -2.71595642e-03 1.62988584e-02 7.45441318e-02 2.65823537e-03
      -2.89485324e-04 -6.16854941e-03 -9.01764482e-02 -5.39618731e-03
      3.95894330e-03 -5.21574430e-02 1.80353429e-02 4.72899638e-02
      2.09339410e-02 1.11575157e-03 -1.28374090e-02 -1.96445286e-02
      -3.70529145e-02 -4.44969535e-02 -7.54799694e-02 -6.94380491e-04
      8.86422396e-02 3.52141075e-02 -1.25090983e-02 -1.52546791e-02
      -5.41428514e-02 -6.65075481e-02 7.10954599e-04 -4.27984027e-03
      3.61355767e-02 9.24857631e-02 -2.14987099e-02 -2.12006606e-02
      -1.30313011e-02 -6.99999630e-02 1.14556758e-04 1.51613855e-03
      6.38999417e-03 1.66973434e-02 7.70657929e-03 -9.41657228e-04
      1.10853938e-02 -1.55797396e-02 -6.94124913e-03 -4.13497724e-02
      -2.87612099e-02 6.97789574e-03 9.26979911e-03 6.33536503e-02
      -3.31159569e-02 -2.49872059e-02 -6.55584410e-02 -3.14557180e-02
      -3.47899236e-02 -2.61347275e-02 -1.12398053e-02 1.10738315e-02
      1.12374030e-01 2.07629893e-03 -1.15521215e-02 -2.88206227e-02
      -3.45337801e-02 -6.02196902e-02 -1.92467161e-02 -1.16558298e-02
      3.09741299e-05 6.51472062e-02 3.83734284e-03 2.56144698e-03
      -2.83306558e-03 -5.48766516e-02 -1.02930725e-01 1.09475553e-02
      1.01700108e-02 3.24408896e-02 7.76060373e-02 2.25774020e-05
      -5.75174764e-03 -8.57362151e-03 -1.11583114e-01 -2.50263531e-02
      3.37607786e-03 2.17477232e-03 2.25203857e-03 1.80716440e-03
      -3.93303344e-03 -5.60319750e-03 -2.12522480e-03 -4.91587780e-02
      -6.83988631e-02 -2.75021810e-02 -4.83398512e-02 -3.28274220e-02
      9.22869295e-02 -6.35164604e-03 -1.00870999e-02 -7.89747015e-03
      -4.50951010e-02 -3.73220704e-02 1.05134677e-02 1.65793598e-02
      6.35797232e-02 7.33326897e-02 -3.56368795e-02 -4.00750749e-02
      -1.99151207e-02 -3.68480459e-02 -1.58193186e-02 -1.90485287e-02
      -1.56085230e-02 -1.33053651e-02 3.91046628e-02 -9.55317449e-03
      -4.25621159e-02 6.09561475e-03 -2.32031080e-03 -2.74722613e-02
      -1.80083141e-02 -4.01989184e-03 -5.82462875e-03 8.36705938e-02
      -2.30110642e-02 -1.79840941e-02 -2.69221794e-02 -1.50555521e-02
      -3.12941223e-02 -4.65774424e-02 -1.81500297e-02 2.06309576e-02
      9.28620473e-02 3.10850758e-02 1.76067441e-03 -3.47742215e-02
      -5.43808043e-02 -1.76330227e-02 -2.03172732e-02 -6.59175590e-03
      -1.26165263e-02 3.41462269e-02 8.09729192e-03 9.28549469e-03
      2.00633314e-02 -3.84895853e-03 -3.47344652e-02 9.67000891e-03
      8.36244039e-03 1.49209378e-02 2.56608687e-02 -8.14271101e-04
      -4.22230130e-03 -2.27359240e-03 -5.15116416e-02 -3.93256620e-02
      1.37394108e-03 -1.35835086e-03 -3.54555179e-03 4.83033276e-04
      -1.25117949e-03 -5.92611078e-03 -2.16704095e-03 -4.65475805e-02
      -4.36931960e-02 -5.23454184e-03 6.22879714e-04 5.50387558e-05
      -6.84570614e-03 1.04955705e-02 1.54710608e-02 7.54469307e-03
      -5.93070537e-02 -2.62297112e-02 -1.23149352e-02 7.68026628e-04
      4.31516171e-02 4.84722815e-02 -1.05754640e-02 -1.62217505e-02
      -4.83327452e-03 -2.97493581e-02 -4.47067386e-03 7.77736120e-03
      -1.92536358e-02 -1.89496651e-02 8.20686854e-03 -4.01460938e-03
      -2.04132274e-02 3.24774720e-02 -1.60262093e-03 9.03876405e-03
      1.84667241e-02 1.24638667e-02 7.10601045e-04 9.86993127e-03
      1.98437404e-02 3.17082591e-02 4.62575629e-02 2.16474552e-02
      -1.06043173e-02 -1.86004788e-02 -4.76040831e-03 1.38529157e-02
      7.43987709e-02 2.29449552e-02 1.02467481e-02 -7.44086318e-03
      -2.17422508e-02 -1.79294236e-02 -2.64515411e-02 -2.24467803e-04
      -1.85281597e-02 3.67744155e-02 4.14904812e-03 1.54265007e-02
      5.32842278e-02 4.88296151e-03 -3.68221197e-03 1.91707388e-02
      2.26583201e-02 2.93857846e-02 -1.21570108e-02 4.42377059e-03
      1.70745868e-02 1.29715148e-02 9.05774813e-03 -3.19315419e-02
      -6.09852653e-03 -3.88700562e-03 -6.15061820e-03 -6.02168730e-03
      -1.88261736e-03 -1.28403783e-03 -3.27488082e-03 -4.31407988e-02
      -8.24110582e-02 -2.71149389e-02 -2.36709486e-03 -1.96802500e-03
      -1.57274958e-02 1.05785141e-02 2.64339447e-02 1.15568731e-02
      -9.16000977e-02 2.64306851e-02 -3.72527214e-03 -1.24562411e-02
      -9.24014300e-03 -8.02689791e-03 -1.97085571e-02 -3.49844061e-02
      -2.34909989e-02 -4.64984663e-02 4.22755163e-03 9.79524013e-03
      -4.67465771e-03 -3.12094111e-02 -1.64044101e-03 -1.66874733e-02
      -3.62911113e-02 1.60773825e-02 -1.24763623e-02 4.09031212e-02
      2.80469432e-02 1.62368063e-02 2.41824612e-02 -1.32905412e-02
      2.00183876e-02 5.46737127e-02 7.49735162e-02 4.64856066e-02
      8.25794339e-02 5.04982211e-02 3.39777535e-03 5.25617134e-03
      -5.00797741e-02 -4.07430641e-02 -2.36104429e-02 2.62789428e-03
      4.58829217e-02 -4.94547002e-02 -1.37990583e-02 -2.84689874e-03
      -1.07311746e-02 1.93249099e-02 -7.18465215e-03 1.04226032e-03
      2.08770540e-02 -6.46555470e-03 2.00840961e-02 5.61926775e-02
      3.99241969e-02 3.97671685e-02 -6.32493868e-02 6.48300722e-03
      3.40831392e-02 2.55116411e-02 3.32407691e-02 7.65358433e-02
      3.18095945e-02 7.96920722e-06 3.64296348e-03 -5.07225208e-02
      -7.48587260e-03 1.23753799e-02 2.85150055e-02 7.77757391e-02
      -2.70523317e-02 -1.45201702e-02 -5.97775402e-03 -4.71513811e-03
      -1.34495310e-02 -1.02503097e-03 3.67177138e-03 7.77960639e-04
      -4.99801077e-02 3.67150083e-02 1.84809975e-02 -1.91204436e-02
      -1.57148801e-02 -1.52480463e-02 -6.31653145e-02 -8.29513371e-02
      -6.41297102e-02 -8.02223533e-02 4.10946757e-02 4.62087132e-02
      1.87153369e-02 6.20197318e-03 -1.32790068e-02 -5.46584427e-02
      -3.62343118e-02 -2.72182487e-02 -5.64287752e-02 3.13851312e-02
      9.89017915e-03 2.83228257e-03 1.89536195e-02 -1.21453414e-02
      1.53522436e-02 2.66704205e-02 2.58934442e-02 3.51995556e-03
      8.70361328e-02 8.47114548e-02 8.93745758e-03 -1.06557207e-02
      -8.77054259e-02 -1.21748775e-01 -6.81712180e-02 -1.19214114e-02
      4.52838354e-02 1.11954533e-01 1.06618755e-01 -6.95573958e-03
      -1.40119288e-02 -1.12960652e-01 -1.19100653e-01 -5.69506139e-02
      -2.16990020e-02 4.18764204e-02 3.21033671e-02 2.98236124e-02
      1.46940397e-02 1.57046393e-02 -5.60024306e-02 3.60324048e-03
      2.34312471e-02 1.47140203e-02 2.90561095e-02 8.82214606e-02
      5.16741797e-02 -1.53150074e-02 -1.04031647e-02 -7.31074437e-02
      -2.54510622e-02 2.20544427e-03 5.89043684e-02 9.21019465e-02
      4.97594364e-02 -1.94302015e-02 -4.82415557e-02 -1.48298433e-02
      -6.54633641e-02 -4.36296761e-02 -4.58755204e-03 4.36296463e-02
      8.00482780e-02 4.61840220e-02 2.48529818e-02 8.48765485e-04
      -1.34528719e-03 -9.58693307e-03 -3.76005247e-02 -3.80255468e-02
      -2.89505776e-02 -6.27181903e-02 5.99499531e-02 8.14896151e-02
      3.56400385e-02 1.41045060e-02 -1.35934609e-03 -4.98325676e-02
      -3.04974392e-02 -2.38606893e-02 -2.11066417e-02 -1.35788191e-02
      6.88129989e-03 4.59338538e-03 6.38261554e-04 1.02335876e-02
      6.95282826e-03 6.64731907e-03 -3.38060944e-03 -3.32417302e-02
      1.24085344e-01 8.73267055e-02 1.13244150e-02 -5.95155172e-03
      -8.59925374e-02 -1.21166639e-01 -4.36316356e-02 -1.74563248e-02
      5.26101999e-02 7.14394674e-02 9.71362442e-02 3.15269604e-02
      -9.44266375e-03 -8.08488131e-02 -1.32412836e-01 -7.55381584e-02
      -2.02108957e-02 4.75177243e-02 -6.29622769e-03 2.57407259e-02
      1.39306411e-02 -5.20132110e-03 -4.53273505e-02 -9.36659519e-03
      9.19912104e-03 1.02009680e-02 -1.99609250e-02 6.02497496e-02
      3.18079330e-02 -8.13991763e-03 -8.28310661e-03 -6.27174675e-02
      -2.39890423e-02 -6.54847035e-03 3.52561250e-02 7.87004605e-02
      5.54398671e-02 -3.23259830e-02 -7.29171038e-02 -3.88330594e-02
      -8.10218975e-02 -7.01276064e-02 -8.00663605e-03 5.24326153e-02
      9.06094611e-02 1.67877413e-02 -9.79452021e-03 -4.15811315e-02
      -3.82731520e-02 -3.92689779e-02 -4.08022152e-03 -6.04866631e-03
      -1.77479989e-04 1.17303906e-02 -1.49107492e-03 -3.95694375e-03
      -2.05532890e-02 8.47595278e-03 2.23602783e-02 1.08615411e-02
      3.17347609e-03 -6.68359874e-03 -3.65206809e-03 -3.44660357e-02
      -3.94610167e-02 -5.18803149e-02 -1.48144737e-02 9.72766653e-02
      -9.08238161e-03 -2.40968484e-02 -2.28874423e-02 -1.46119120e-02
      -3.93504687e-02 -1.25810578e-02 -5.78257022e-03 1.74681861e-02
      1.04178846e-01 -1.75681803e-02 -1.68690421e-02 -9.69110895e-03
      -2.83250008e-02 3.11249029e-03 5.89223951e-03 7.74342706e-03
      1.76397748e-02 1.08194184e-02 3.38841137e-03 2.78704744e-02
      -2.28141192e-02 -1.55087365e-02 -7.34806061e-02 -1.93147436e-02
      2.40189489e-02 1.89595260e-02 5.44913895e-02 -1.18661169e-02
      2.83389236e-03 -8.50882083e-02 -9.20275897e-02 -6.34516105e-02
      -3.54274176e-02 -2.51076929e-02 -7.46108592e-03 1.15393862e-01
      3.68362516e-02 8.95212963e-03 -5.82967997e-02 -8.35748762e-02
      1.14534572e-02 5.72250644e-03 7.21664866e-03 3.64688504e-03
      2.79527120e-02 1.47600919e-02 8.95149540e-03 6.83982577e-03
      4.38535633e-03 -4.85459417e-02 2.33686231e-02 2.89619099e-02
      2.29186658e-02 5.82181849e-02 2.08705496e-02 -1.17522422e-02
      -4.57877368e-02 -7.13073164e-02 -5.10633178e-02 7.49980798e-03
      3.02166981e-03 6.06678892e-03 4.13711704e-02 1.56464614e-02
      1.62015408e-02 -1.57444850e-02 -9.76382270e-02 -2.64791325e-02
      -1.52499136e-02 -1.73398629e-02 -8.64827726e-03 8.79922509e-02
      -1.17895100e-02 -1.26337921e-02 -7.64550781e-03 -1.16975661e-02
      -5.49694486e-02 -2.75813602e-02 -4.35552467e-03 4.46155854e-02
      8.49175006e-02 -1.79801378e-02 -2.13971939e-02 -1.17477737e-02
      -4.48518246e-02 -8.30313656e-03 -1.20996954e-02 -5.76244295e-03
      -9.34586767e-03 4.45870608e-02 2.10485212e-03 -7.96809699e-03
      1.44729530e-02 -1.50196999e-02 -6.72708452e-02 -2.16491856e-02
      -2.73943413e-03 -1.37345549e-02 7.05049410e-02 -2.50483789e-02
      -1.42880511e-02 -5.69896810e-02 -4.79258411e-02 -4.51451465e-02
      -6.42251372e-02 -4.04516309e-02 -1.10462531e-02 7.52321258e-02
      8.48782957e-02 5.12627475e-02 -6.39736354e-02 -5.45547493e-02
      -1.63096674e-02 -3.26292962e-02 -9.67616029e-03 -9.20934603e-03
      3.08250897e-02 1.51348859e-02 1.56741366e-02 3.47447619e-02
      1.71959419e-02 -4.27015349e-02 9.08427779e-03 9.72584449e-03
      1.03334403e-02 3.76653038e-02 5.38734347e-03 -7.10747484e-03
      -2.18206197e-02 -5.33444434e-02 -5.95757626e-02 7.17324251e-03
      -6.63109939e-04 -1.59047393e-03 3.48160341e-02 3.01426165e-02
      3.53443995e-02 -1.90226585e-02 -6.47955537e-02 -5.79256751e-02
      3.09279328e-03 1.22054620e-03 2.63415975e-03 -1.13463001e-02
      -4.55621397e-04 -2.06758943e-03 -4.55174688e-03 -1.03108920e-02
      -1.42568061e-02 -1.37466751e-02 -1.82065694e-03 2.00727843e-02
      6.15958162e-02 -2.18323758e-03 -3.96694895e-03 -3.89612804e-04
      -1.13650765e-02 -5.75513020e-03 -1.99392997e-03 4.10778262e-03
      -2.99700499e-02 1.95672121e-02 2.29337020e-03 -1.50254639e-02
      3.29393335e-02 -1.13846296e-02 9.15581360e-03 1.20939594e-02
      1.46476999e-02 8.32427200e-03 -2.68405788e-02 4.34115343e-03
      1.40520567e-02 1.89050827e-02 -8.35233554e-03 -1.97045058e-02
      -2.61850674e-02 -1.49500975e-02 1.82241015e-03 8.60139951e-02
      5.58721647e-02 3.36541981e-02 -1.33959800e-02 -4.68994305e-02
      5.25431288e-03 -1.31888203e-02 7.46962102e-03 1.16761327e-02
      2.68194675e-02 -1.26171969e-02 2.52525182e-03 2.76279058e-02
      -3.88950878e-03 -4.06398289e-02 4.36222367e-02 4.82604280e-02
      6.42456710e-02 -1.06866891e-02 -1.06510818e-02 3.58442718e-04
      1.06663525e-03 -1.83073059e-02 -2.58027110e-02 1.40519475e-03
      -3.44300439e-04 -1.00208982e-03 4.66268836e-03 1.18921371e-02
      1.53686199e-02 -4.72908746e-03 -5.31452969e-02 -5.12466915e-02
      3.06590050e-02 8.81462824e-03 8.60731211e-03 -2.68188361e-02
      -5.35177998e-03 -1.40789375e-02 -8.50597490e-03 -1.17350090e-02
      -6.06823526e-02 1.87910665e-02 1.21906390e-02 1.64520703e-02
      -7.44595705e-03 -4.76420275e-04 -1.33356592e-02 -1.77819226e-02
      -4.45709825e-02 -7.51497317e-03 3.62485094e-04 2.47542281e-03
      -1.93992406e-02 -2.49621016e-03 -5.44722611e-03 -1.11324778e-02
      1.27510512e-02 -2.31343638e-02 2.74528302e-02 2.43683327e-02
      1.84289347e-02 2.53316127e-02 -3.02608013e-02 9.93593037e-03
      2.58773826e-02 3.41774784e-02 1.40464762e-02 7.75729790e-02
      2.73181740e-02 4.58078505e-03 6.18681032e-03 -4.03070189e-02
      -2.22467147e-02 -7.08187837e-03 7.53351254e-03 4.67634201e-02
      -4.45719808e-02 -4.59541893e-03 7.99271185e-03 2.36862041e-02
      1.27343098e-02 -2.09891219e-02 -1.34844687e-02 2.67602950e-02
      -1.12187909e-02 1.07674813e-02 4.85547259e-02 4.88957986e-02
      5.15194312e-02 -3.25558148e-02 -1.39380042e-02 2.16907021e-02
      -2.74178572e-03 2.22509205e-02 6.70899525e-02 1.14615262e-02
      -2.00696718e-02 -3.94765614e-03 -3.36061567e-02 -9.58625972e-03
      1.44992415e-02 4.94305193e-02 7.19573721e-02 -6.29082769e-02
      2.67270692e-02 7.25695584e-03 5.66092227e-03 -1.55399973e-02
      -3.13484832e-03 -1.12908948e-02 -6.19317312e-03 -3.80772650e-02
      -7.41228014e-02 -1.56822167e-02 1.05910618e-02 2.61387862e-02
      -8.90081376e-03 -3.68946628e-03 -2.98138857e-02 -4.86535057e-02
      -6.79239333e-02 -3.19533534e-02 -3.55414972e-02 -3.98223810e-02
      -2.50280090e-02 -2.01558359e-02 -7.76997209e-03 -1.94534026e-02
      1.19853122e-02 4.17313576e-02 2.28055399e-02 9.71548166e-03
      4.96826740e-03 1.25355497e-02 -3.93009037e-02 4.64044511e-03
      1.24281105e-02 1.39450850e-02 5.25227422e-03 1.09933428e-01
      7.33120516e-02 6.49137609e-03 -3.11939092e-03 -8.35184082e-02
      -7.53215998e-02 -2.88645476e-02 2.18854914e-03 7.19023868e-02
      8.15933943e-02 4.48044166e-02 -2.36453488e-02 -1.32944752e-02
      -6.90351203e-02 -6.88874200e-02 -2.36106180e-02 -6.79092249e-04
      3.99101861e-02 1.85240898e-02 2.79630627e-02 2.46280823e-02
      2.85811611e-02 -6.77586123e-02 -5.22101298e-03 2.43466105e-02
      -5.89188276e-05 1.93672664e-02 4.49929684e-02 4.87959071e-04
      -5.99161386e-02 -4.31279168e-02 -7.20636398e-02 -3.17822993e-02
      1.54933927e-03 8.80782828e-02 4.44193594e-02 4.59413929e-03
      -6.19688630e-02 -8.03457722e-02 -1.43816862e-02 -6.73767254e-02
      -5.59395812e-02 1.41894575e-02 8.16836804e-02 7.79089108e-02
      -5.04734851e-02 -2.48201415e-02 -1.60393876e-03 8.62526800e-03
      -1.13371585e-03 -3.88855115e-03 -1.86697934e-02 -2.72668954e-02
      -2.28417739e-02 -5.90656288e-02 -6.53464869e-02 -9.41942781e-02
      -5.94580024e-02 -4.72465158e-02 -1.65512729e-02 -2.42321938e-02
      6.12824745e-02 4.89617884e-02 -2.87937354e-02 -4.35317084e-02
      -2.31368039e-02 -4.56303684e-03 -6.08755508e-04 -7.21058156e-03
      9.32701677e-03 6.54687881e-02 4.96671051e-02 8.79843906e-02
      5.09087630e-02 3.85421165e-03 -3.55569017e-03 -6.08597286e-02
      -4.59745638e-02 -1.43931918e-02 3.05168354e-03 4.39617559e-02
      1.27608016e-01 7.34689757e-02 -3.83566245e-02 -3.82162370e-02
      -1.10654309e-01 -1.00296535e-01 -2.85695717e-02 9.72506404e-03
      8.27101022e-02 7.56615214e-03 1.47613864e-02 -7.12308986e-03
      -2.11414564e-02 -4.30142395e-02 -3.33822309e-03 3.93750938e-03
      2.52676010e-03 1.39772054e-03 3.30836140e-02 -1.34699456e-02
      -4.13666219e-02 -1.96131673e-02 -7.80225024e-02 -2.72331480e-02
      1.52953260e-03 9.79526043e-02 7.61760399e-02 8.63601640e-03
      -4.71710749e-02 -1.07932478e-01 -3.92672047e-02 -3.65743153e-02
      -5.19308485e-02 2.30296999e-02 8.58335868e-02 5.90779260e-02
      1.77316684e-02 -2.78841499e-02 -9.70865861e-02 -6.98615685e-02
      -4.39028963e-02 -9.65375546e-03 -1.53142074e-02 1.08542787e-02
      2.67329291e-02 -2.01221313e-02 -2.24273149e-02 -3.70265804e-02
      -2.16640383e-02 -1.93028376e-02 -8.04995187e-03 -2.36332021e-03
      6.04386330e-02 7.37705007e-02 -5.72562777e-03 -7.01931119e-02
      -4.95727956e-02 -6.99482765e-03 2.79005636e-02 1.70550798e-03
      2.97188163e-02 1.06504232e-01 7.83586279e-02 3.75635223e-03
      -2.45403424e-02 -3.51558924e-02 -2.04491317e-02 1.02065746e-02
      6.52086176e-03 5.13736950e-03 1.80210453e-02 2.10419707e-02</_>
    <_>
      -3.64046022e-02 -3.02894209e-02 -1.59298722e-02 1.33427605e-03
      -8.36946536e-04 -6.05763495e-03 -1.17817698e-02 -1.08422013e-02
      -2.89809629e-02 -2.56593488e-02 -4.15579118e-02 -9.75056551e-03
      2.86789425e-02 5.02718762e-02 -7.15817884e-02 -4.04914394e-02
      -6.22040778e-02 -6.64597601e-02 1.49248978e-02 -4.35867114e-03
      6.63039740e-03 4.58508031e-03 7.05474541e-02 -3.11342962e-02
      -1.83600485e-02 -3.07245497e-02 -1.04240030e-02 -5.99898063e-02
      -2.74623260e-02 -2.37519061e-03 3.67654413e-02 5.89395463e-02
      5.94474608e-03 -1.58726983e-02 -5.40712737e-02 -7.21533671e-02
      -2.74321474e-02 -5.91066442e-02 -6.42021447e-02 -1.74110215e-02
      7.67108947e-02 -5.38718002e-03 -8.65625888e-02 -1.18043445e-01
      -7.47283623e-02 -2.42914120e-03 -6.62816688e-02 1.96760371e-02
      5.63877588e-03 7.40913376e-02 -5.68653941e-02 -8.71778205e-02
      -1.02084801e-01 -4.80519831e-02 -4.11707126e-02 -8.62454344e-03
      -1.59085672e-02 -9.03237984e-03 3.68180312e-02 1.09006688e-02
      1.90131981e-02 -2.25599334e-02 -3.70779075e-02 -5.97579218e-02
      -6.59922510e-02 -7.19969943e-02 2.93780142e-03 1.13013580e-01
      6.36836588e-02 -3.52865532e-02 -7.96287954e-02 -8.45601410e-02
      -3.93224917e-02 -5.40258288e-02 -9.85211227e-03 1.95734054e-02
      1.21019065e-01 2.65714303e-02 -2.57211793e-02 -8.02517012e-02
      -5.01641333e-02 -9.77263669e-04 -1.14619061e-02 7.34338595e-04
      6.44548144e-03 5.11384942e-02 -3.90777588e-02 -2.35482100e-02
      -3.71387675e-02 -3.00937649e-02 2.61529237e-02 -1.05557907e-02
      8.32534023e-03 2.11357465e-03 5.14664277e-02 -2.76484825e-02
      -1.60039719e-02 -1.43945487e-02 2.33668908e-02 3.37761417e-02
      -1.41042853e-02 -8.82900041e-03 -2.63392329e-02 -4.62220386e-02
      -1.06261857e-02 -1.24355396e-02 5.69671532e-03 5.22479229e-02
      -1.37419002e-02 -6.29503652e-02 -2.65801139e-02 -2.28922144e-02
      8.97121876e-02 -2.27528401e-02 -7.90922567e-02 -8.53268057e-02
      -4.18834127e-02 -3.31670940e-02 -5.94870411e-02 -1.29999770e-02
      1.79151893e-02 2.59000901e-02 -8.13565478e-02 -9.92707387e-02
      -1.07078835e-01 9.27221496e-03 1.76518373e-02 -3.70646976e-02
      -6.48767799e-02 -1.05939500e-01 -2.30748709e-02 -4.63941656e-02
      -5.69231436e-02 -9.17096995e-03 7.40535185e-02 -3.54809649e-02
      -3.89518030e-02 -3.19787189e-02 -6.56880625e-03 1.33226544e-01
      2.99346019e-02 -2.60920655e-02 -5.05751036e-02 -4.39177230e-02
      -7.53214769e-03 -6.30899146e-02 4.68712253e-03 2.24469732e-02
      5.40218093e-02 1.14483312e-02 -3.76039185e-02 -1.05718680e-01
      -4.45989259e-02 2.54346132e-02 8.02795868e-03 8.62534717e-03
      9.01729858e-04 8.10876139e-04 -5.52015677e-02 -6.52665272e-02
      -2.83248499e-02 1.25839934e-02 1.01847900e-02 -6.41494105e-03
      3.96243483e-03 -1.21790404e-03 1.15572596e-02 -2.85644084e-03
      -2.22732825e-03 6.13388559e-03 2.51335576e-02 6.98140040e-02
      -1.16107631e-02 -1.60818528e-02 -3.90888713e-02 -8.20332989e-02
      -2.67327409e-02 -2.61556394e-02 -6.32119118e-05 9.34268385e-02
      -1.33314691e-02 -2.33798213e-02 -1.34385927e-02 -9.23899841e-03
      -1.91279110e-02 4.39083390e-03 1.09001799e-02 1.01525933e-02
      1.69411022e-02 2.18897387e-02 -2.49210000e-02 -6.50167419e-03
      -3.22067998e-02 -2.33591888e-02 -3.59653160e-02 -3.52729596e-02
      -2.80932728e-02 4.47985604e-02 1.51511012e-02 -5.63960969e-02
      -8.21514800e-02 -9.91067514e-02 -1.20350486e-02 -2.77885664e-02
      -7.75484890e-02 -9.49100684e-03 4.58222181e-02 -3.81457657e-02
      -7.30086416e-02 -3.80881429e-02 -1.77504122e-02 8.97147954e-02
      6.38522133e-02 2.34025493e-02 2.16011368e-02 -6.46243338e-03
      2.54829228e-02 -6.91040838e-03 7.81301223e-03 9.89532936e-03
      3.22579592e-02 -7.81735498e-03 -2.40796618e-02 -2.92147342e-02
      4.39501833e-03 -9.27325804e-03 1.91877354e-02 3.84203494e-02
      3.43134478e-02 -3.48766847e-03 -5.85775897e-02 -6.59110695e-02
      -1.94568746e-02 -1.92460380e-02 -7.13877529e-02 3.09627019e-02
      5.59081063e-02 7.08810687e-02 8.64571556e-02 1.86830666e-02
      1.72469206e-02 -1.98583249e-02 -1.06251515e-01 4.18450907e-02
      -3.73743940e-03 -8.09771474e-03 -1.21629760e-02 -2.96592936e-02
      -1.05580743e-02 -8.85802973e-03 -9.49133304e-04 4.00286280e-02
      -4.97915670e-02 -5.37679940e-02 -1.93724371e-02 -1.38667701e-02
      -7.96793401e-03 3.33110951e-02 3.64246480e-02 3.06623336e-02
      1.24307219e-02 -1.63944662e-02 -4.63809446e-02 -6.93108840e-03
      -3.53368279e-03 7.84982741e-03 1.18019031e-02 1.09698586e-02
      5.31948311e-03 8.72739591e-03 1.22905960e-02 -2.50542611e-02
      -3.13324593e-02 -5.53118996e-02 2.12527812e-02 6.82116253e-03
      -3.70587818e-02 8.37746076e-03 4.65559587e-02 -4.92794029e-02
      -6.89991489e-02 -4.80397977e-02 1.26536135e-02 8.93537700e-02
      1.09873459e-01 7.86360353e-02 5.74611463e-02 -3.77423316e-03
      -5.40738031e-02 -7.22557083e-02 -2.51599066e-02 1.25918388e-02
      2.91917678e-02 7.40741519e-03 2.58542541e-02 3.11717913e-02
      9.22330189e-03 -4.00821157e-02 1.34963216e-02 2.95720361e-02
      3.10724601e-02 7.19276443e-02 -1.05179930e-02 -2.46150550e-02
      4.16032737e-03 -8.73816758e-03 -8.01647455e-02 2.98769716e-02
      8.27524066e-02 1.11922368e-01 9.43846479e-02 3.10882851e-02
      4.17321250e-02 -3.20131779e-02 -8.94962102e-02 -4.16708291e-02
      -3.69097106e-02 1.39098074e-02 3.52715068e-02 1.29778879e-02
      9.90329124e-03 2.28338521e-02 1.73059646e-02 -4.41144407e-02
      -1.79876368e-02 -2.43000295e-02 -5.78438491e-03 -4.97948937e-03
      6.27385732e-03 1.90229490e-02 1.87020358e-02 1.40033588e-02
      9.66566615e-03 -6.85523357e-03 -5.43389879e-02 -1.04657505e-02
      3.49992490e-03 2.07441393e-03 9.93627869e-03 1.39040314e-02
      6.83486089e-03 2.50518713e-02 3.16529348e-02 -2.60605384e-02
      -1.00315399e-02 2.64684809e-03 -9.86589771e-03 -4.35832801e-04
      2.34701391e-03 1.55143079e-03 2.81014070e-02 -4.90723960e-02
      -7.01333955e-02 -1.45969670e-02 1.99082978e-02 5.13770320e-02
      4.31258753e-02 5.99014498e-02 3.69642265e-02 -1.81140527e-02
      -5.70499478e-03 -1.09045906e-02 -4.98583987e-02 1.63172930e-02
      1.99164432e-02 -1.71946082e-03 2.68313121e-02 5.42274527e-02
      5.86634688e-02 3.09515912e-02 -3.68332341e-02 -4.39407229e-02
      -6.53454382e-03 -1.83931030e-02 -1.28213093e-02 1.61404647e-02
      4.54310365e-02 3.80758233e-02 -4.43984605e-02 1.06839100e-02
      2.70668566e-02 4.56841923e-02 3.11590619e-02 1.86464731e-02
      3.55616063e-02 -3.10097076e-03 -5.42897917e-02 -1.58620887e-02
      -5.50202988e-02 9.87582840e-03 3.97369750e-02 1.28258681e-02
      1.24443518e-02 2.92500034e-02 6.95080012e-02 -8.26240145e-03
      -1.22092874e-03 -2.85385083e-02 -2.90669445e-02 -1.63013563e-02
      -1.84609336e-04 1.97467860e-04 2.09870301e-02 7.83387050e-02
      -9.31748841e-03 2.94295158e-02 -1.20095480e-02 -5.91601431e-03
      4.75131720e-03 -6.05510967e-03 7.19596283e-05 3.58608621e-03
      1.85633055e-03 1.65606327e-02 5.11360765e-02 -2.69722603e-02
      -3.15535404e-02 2.18178472e-03 -4.41281078e-03 8.50221049e-03
      1.04929749e-02 1.44889839e-02 5.85713387e-02 -6.96433196e-03
      -5.88276088e-02 -3.40260193e-02 -9.35024396e-03 8.01123306e-03
      5.40044298e-03 5.14270877e-03 7.99266528e-03 7.45344767e-03
      1.42310010e-02 -5.58529906e-02 -3.77783738e-02 4.13799938e-03
      -4.35871910e-03 -8.83570500e-03 9.34395846e-03 2.88304277e-02
      5.81382476e-02 2.11116709e-02 -9.42268223e-03 -8.91975686e-03
      2.24338402e-03 6.22613030e-03 3.58030503e-03 3.62900682e-02
      9.56817791e-02 4.71704714e-02 -4.54163998e-02 -8.14903527e-02
      -2.52597835e-02 9.15346574e-03 7.75956437e-02 3.08828652e-02
      1.60547458e-02 3.35661359e-02 -2.44024303e-03 5.92901651e-03
      -3.46051790e-02 -7.40720704e-03 5.62359765e-03 1.09987648e-03
      2.20260094e-03 1.07102860e-02 5.47667481e-02 -3.68630746e-03
      1.61864981e-03 -4.62530367e-02 -5.67071736e-02 -4.58310172e-02
      7.39807962e-03 7.36222719e-04 4.14596535e-02 8.77265185e-02
      3.01839076e-02 -4.38401178e-02 -5.57088107e-02 -3.03132553e-02
      -2.01215241e-02 5.83331706e-03 5.87907562e-04 7.73034850e-03
      -9.14806407e-03 -1.67734232e-02 -3.45509797e-02 -1.57049783e-02
      -6.49149122e-04 1.02971429e-02 3.01911626e-02 1.55419633e-02
      8.34318995e-03 -1.69080626e-02 -2.75108926e-02 -2.57410724e-02
      -5.39080538e-02 -5.26270084e-02 -2.46335752e-02 9.65991914e-02
      3.34646143e-02 -4.17620540e-02 -4.50386815e-02 -4.09819409e-02
      -1.91285312e-02 -4.22651134e-02 5.78740239e-03 1.42349144e-02
      1.11209102e-01 -2.11533494e-02 -4.04567569e-02 -5.27170822e-02
      -3.71849500e-02 -4.93521355e-02 -1.71390325e-02 -4.27430570e-02
      -3.06465812e-02 6.76077753e-02 1.36696370e-02 2.04293262e-02
      -3.29455100e-02 -7.64480159e-02 -9.62815434e-02 -1.12308532e-01
      -1.21670812e-01 1.83174312e-02 7.72274211e-02 6.60194382e-02
      -9.29387286e-04 -1.30001068e-01 -1.21584989e-01 -5.14975414e-02
      -8.82059410e-02 -4.84812520e-02 -2.59511115e-04 9.97675955e-02
      7.45804533e-02 1.82872973e-02 -8.85021985e-02 -3.41164097e-02
      8.25098809e-03 6.33140560e-03 -5.10858744e-03 -1.14102988e-03
      3.26952599e-02 -5.97243998e-05 -2.58430503e-02 -2.67585870e-02
      -1.52437845e-02 -9.07296911e-02 -8.20887163e-02 -1.04181990e-01
      -2.89453566e-02 1.09575488e-01 2.64732223e-02 8.17453396e-03
      -4.04819064e-02 -2.29401309e-02 2.74432302e-02 -2.89691892e-02
      -3.50850523e-02 -1.47863217e-02 1.31701734e-02 2.63479576e-02
      2.86759697e-02 2.44043004e-02 5.48642687e-02 -1.58080757e-02
      -3.56037356e-02 -2.04139203e-02 -1.09888818e-02 9.60895866e-02
      -3.69825866e-03 -4.00072113e-02 -3.95702012e-02 -2.91184112e-02
      -3.10771596e-02 -6.42959923e-02 9.53823607e-03 -3.82285536e-04
      3.75314504e-02 -4.95873541e-02 -6.36779517e-02 -8.72249976e-02
      -5.06253690e-02 3.44200945e-03 -1.30362129e-02 -2.61143763e-02
      -4.49617580e-02 7.96188507e-03 -2.35127974e-02 -4.06618752e-02
      -9.59041715e-03 2.67273597e-02 -8.82897675e-02 -9.53152031e-02
      -8.52345526e-02 -2.44958811e-02 1.07136734e-01 5.37415594e-02
      -1.40051870e-02 -8.95336419e-02 -7.59009272e-02 -1.95703413e-02
      -1.01886049e-01 -3.34490091e-02 -1.02375578e-02 3.61365266e-02
      3.71434018e-02 3.93989077e-03 -6.61606044e-02 -1.31124677e-02
      6.25089258e-02 3.35854553e-02 4.83125709e-02 3.43448706e-02
      -3.53549495e-02 -1.07117295e-01 -8.91401023e-02 -5.64612933e-02
      2.36543491e-02 -4.65113558e-02 -5.25972061e-02 -6.45232424e-02
      -2.14955918e-02 4.30802256e-02 1.92380603e-02 1.22325160e-02
      -4.87348018e-03 4.27146326e-04 9.08304676e-02 -2.16106419e-02
      -2.80310232e-02 -1.50713753e-02 -4.89836931e-03 2.68630441e-02
      4.89203855e-02 4.23532054e-02 1.19897380e-01 7.82018378e-02
      1.67655926e-02 1.63612179e-02 8.51135328e-03 -6.05740584e-03
      -1.41360443e-02 -1.03084156e-02 -4.67827171e-03 4.18115593e-02
      -2.27244687e-03 -1.51778674e-02 -1.74072350e-03 -9.17299651e-03
      2.98687536e-02 -1.93587635e-02 -2.18534451e-02 -2.23581698e-02
      -8.44992290e-04 -1.00202896e-02 -2.00100560e-02 -2.56831553e-02
      -6.41978234e-02 1.70815475e-02 -1.29968366e-02 -5.71631975e-02
      3.60962935e-03 2.26692706e-02 -7.62902945e-02 -1.63988732e-02
      7.21739652e-03 1.06942393e-02 4.77808267e-02 3.17390077e-02
      1.02541065e-02 2.92105670e-03 -6.15202487e-02 6.25390559e-02
      -7.27318926e-03 6.67117769e-03 1.37084769e-03 -1.68748032e-02
      -1.11311199e-02 -1.66073758e-02 -2.78227758e-02 4.15227897e-02
      2.07962785e-02 8.34697559e-02 1.22604914e-01 8.38047415e-02
      -3.36533599e-02 -9.72466022e-02 -1.14480063e-01 -9.68119428e-02
      -1.80724338e-02 -6.46719560e-02 9.02622491e-02 1.14071690e-01
      1.47127241e-01 1.14438370e-01 -4.06306162e-02 -4.25665230e-02
      -1.08482771e-01 -1.12411425e-01 5.84844053e-02 1.93343253e-03
      1.05952669e-03 -4.29504493e-04 -5.36510395e-03 3.57641652e-03
      1.54259009e-02 1.71486530e-02 5.75123541e-02 9.90489796e-02
      4.66788672e-02 3.81118655e-02 2.59822477e-02 4.26180847e-03
      -2.59047840e-02 -4.18213122e-02 -4.05086279e-02 2.39036586e-02
      3.59574892e-02 4.11590748e-02 2.71902755e-02 3.45507115e-02
      2.41355766e-02 -3.11136693e-02 -5.36856204e-02 -8.92137289e-02
      -8.17326158e-02 -6.54297648e-03 -4.49509360e-03 6.47949171e-04
      -1.28931319e-02 4.06940542e-02 1.05497558e-02 -1.09690921e-02
      1.11785792e-02 1.31232450e-02 -6.21261969e-02 -2.87656859e-02
      1.37554547e-02 4.82611842e-02 7.80986696e-02 5.68588413e-02
      4.76364493e-02 2.32260488e-02 -5.60855903e-02 -1.38717424e-02
      -5.62232658e-02 -1.00818148e-03 2.39710975e-02 1.77862234e-02
      4.54577198e-03 1.10434126e-02 1.70386191e-02 -1.44696264e-02
      -4.85596657e-02 5.10187484e-02 7.45491832e-02 8.86295065e-02
      7.79947042e-02 -3.90495136e-02 -5.68170659e-02 -1.86632164e-02
      -4.79158387e-02 -4.70477417e-02 9.82679278e-02 1.42224088e-01
      1.63075447e-01 1.06838800e-01 -2.50315405e-02 -1.57429483e-02
      -9.08517689e-02 -4.05800380e-02 -4.20828499e-02 -2.53248401e-02
      1.93827599e-02 4.58996072e-02 9.11634602e-03 1.09628877e-02
      1.35120666e-02 2.43225247e-02 -5.37682846e-02 5.70647456e-02
      2.87905298e-02 1.94711462e-02 1.59789156e-02 8.25098995e-03
      -8.72429367e-03 -2.40198039e-02 -2.83254758e-02 3.59677407e-03
      4.52806205e-02 4.35068570e-02 3.18539068e-02 4.49200906e-02
      4.49876636e-02 -4.53676730e-02 -8.61636698e-02 -1.39590874e-01
      -9.30885002e-02 -2.45485939e-02 -2.11127270e-02 -1.14091197e-02
      -1.48425130e-02 -5.41292038e-03 -9.18782316e-03 -4.10270877e-02
      -2.11486872e-02 -4.42809938e-03 -3.53400074e-02 -2.20952798e-02
      3.89324618e-03 2.54561547e-02 3.02403718e-02 2.02300735e-02
      2.64218040e-02 1.38167432e-02 -2.61689648e-02 9.96701536e-04
      -6.86211959e-02 -9.94034763e-03 2.58255657e-02 1.48063991e-02
      1.04848517e-03 1.11809047e-02 3.50997597e-02 3.03434134e-02
      4.49700691e-02 -4.57070321e-02 -2.33088005e-02 -9.80464835e-03
      -4.31045610e-03 -3.06570716e-03 8.44561961e-03 4.01062518e-02
      1.80545598e-02 -3.00459936e-02 4.63378802e-02 4.90149371e-02
      7.56913722e-02 5.10481484e-02 -5.05884411e-03 2.43635457e-02
      -4.00315113e-02 -8.09125900e-02 -2.19930019e-02 -6.51321560e-02
      6.09949324e-03 2.74025407e-02 -5.18963672e-04 1.80874299e-02
      2.27226354e-02 7.57018402e-02 -1.15376133e-02 -4.31155823e-02
      -6.19657598e-02 -4.25174460e-02 -2.00975407e-02 1.55756692e-03
      -2.92187877e-04 4.24694419e-02 1.16091706e-01 2.82936338e-02
      8.52688495e-03 7.51681998e-03 6.88292319e-03 1.10450499e-02
      1.84904914e-02 -1.53354388e-02 -3.69837210e-02 -5.62008619e-02
      -4.68987823e-02 -5.83850183e-02 -4.89430837e-02 -2.40290184e-02
      -3.16259451e-02 -3.57636660e-02 -1.51130669e-02 -4.16746847e-02
      4.67339903e-02 1.67865306e-02 -7.13169156e-03 -7.01477099e-03
      -2.31919507e-03 -7.91490357e-03 -1.05731664e-02 -5.26032317e-03
      -8.88043200e-04 6.89512938e-02 8.86026099e-02 4.06068861e-02
      -5.87024763e-02 -1.38092879e-02 3.56158288e-03 3.33516946e-04
      -1.84773386e-03 5.23136510e-03 2.38500908e-02 1.65754203e-02
      3.65424938e-02 -2.76461504e-02 -2.54833680e-02 -1.72222406e-02
      7.39885448e-03 9.94494883e-04 1.60814095e-02 6.85756952e-02
      1.67412553e-02 -2.54536159e-02 -3.67805101e-02 -8.94013885e-03
      -2.26366636e-03 2.68929247e-02 7.91803282e-03 2.82141683e-03
      1.36790285e-03 -1.24338223e-02 -4.16794010e-02 -6.09357655e-02
      -1.53104486e-02 2.62761861e-03 -8.15083925e-03 2.16233474e-03
      1.63022056e-02 1.18336327e-01 -3.09515055e-02 -1.31409671e-02
      -4.12137546e-02 -6.78007826e-02 -3.96410264e-02 3.72876711e-02
      9.87962354e-03 7.85537586e-02 1.34975791e-01 1.12742241e-02
      -8.84830058e-02 -1.28288209e-01 -7.01357722e-02 -2.78517380e-02
      2.13682503e-02 3.76559701e-03 2.25703679e-02 -5.23510436e-03
      -2.86848787e-02 -2.84880865e-02 -2.66205408e-02 -1.32925920e-02
      -1.80127937e-02 -2.61513833e-02 -8.80174804e-03 -1.24396253e-02
      6.50699884e-02 9.49892104e-02 1.36799300e-02 2.84180587e-05
      1.61749367e-02 6.68282621e-03 3.11936773e-02 2.56904890e-03
      1.56997349e-02 1.01070337e-01 1.13350570e-01 -1.82490516e-02
      -6.01610681e-03 -4.34365997e-04 1.28704328e-02 2.33724713e-02
      3.83537175e-04 4.72927885e-03 3.46925016e-03 -1.04476335e-02</_>
    <_>
      -1.65692940e-02 1.06716910e-02 8.23843852e-03 2.46286727e-02
      2.04465371e-02 -2.51854514e-03 -9.55784880e-03 -3.20020281e-02
      -2.77852062e-02 -4.04330455e-02 -5.69520146e-03 -3.05835367e-03
      3.18007800e-03 1.02568515e-01 -1.91488732e-02 -4.82893884e-02
      -6.98519796e-02 -7.21788704e-02 -3.68062779e-02 -9.19977762e-03
      -1.44453496e-02 -6.23698160e-03 7.19093904e-02 -1.23199625e-02
      -1.31572615e-02 -1.69647280e-02 -6.07740767e-02 -1.82418413e-02
      1.72777046e-02 6.65101083e-03 1.58439539e-02 2.62376610e-02
      2.30750777e-02 -4.25395323e-03 -2.60203555e-02 -2.88008321e-02
      -1.13311678e-01 -4.93377447e-02 -5.74564897e-02 6.86863065e-03
      7.63672888e-02 2.68425737e-02 -7.45472983e-02 -1.12755448e-01
      -1.46627724e-01 -4.73947823e-02 -3.97399999e-02 -4.12186012e-02
      7.85890128e-03 1.40659705e-01 -3.69681343e-02 -5.85314594e-02
      -5.66822514e-02 -8.87737796e-02 1.53013819e-03 1.06477821e-02
      9.38506797e-03 -1.29064508e-02 -6.55280054e-02 -6.69436622e-03
      2.22306326e-02 1.54757164e-02 -1.50604686e-03 -8.41997489e-02
      -1.90959293e-02 1.84761975e-02 4.23431359e-02 8.33491459e-02
      -2.10443558e-03 8.58409423e-03 -4.21637706e-02 -7.80891627e-02
      -7.13854283e-02 -2.22937372e-02 -1.67641304e-02 2.96404287e-02
      1.61398873e-01 5.63259819e-04 -3.44118960e-02 -4.51764725e-02
      -5.56181297e-02 -2.01820228e-02 -8.34518578e-03 -9.33144242e-03
      -9.24928114e-03 6.58273101e-02 -9.80924536e-03 -1.84658505e-02
      -2.25349721e-02 -3.19261216e-02 -6.26570508e-02 -1.28303459e-02
      -1.37508614e-02 -1.12476561e-03 7.57942870e-02 -1.89697444e-02
      -1.75281670e-02 -1.98919848e-02 -8.55770782e-02 -2.58019138e-02
      -1.70416906e-02 5.56269719e-04 7.90188089e-03 1.10162720e-02
      -1.07401272e-03 -4.72561736e-03 -1.44541904e-03 -3.78678739e-02
      -7.57224336e-02 -3.97873670e-02 -2.50596646e-02 8.79691076e-03
      1.03849702e-01 -5.17977809e-04 -4.07483727e-02 -6.17551170e-02
      -8.63254815e-02 -3.84383947e-02 -3.44980247e-02 -4.24526371e-02
      8.05351231e-03 5.66106588e-02 -5.86613454e-02 -8.99271369e-02
      -6.07463010e-02 -4.01092917e-02 -2.44160965e-02 -3.39595191e-02
      -3.31679843e-02 -6.20181439e-03 4.58507277e-02 -1.18999593e-02
      -1.84009578e-02 2.04224139e-02 -1.07849436e-02 -5.68348505e-02
      -1.50851943e-02 -1.77173689e-03 2.02681068e-02 1.19584508e-01
      7.27754924e-03 -2.50315154e-03 -3.31397280e-02 -4.95611802e-02
      -3.02957967e-02 -2.72180885e-02 -2.45424528e-02 3.53621431e-02
      1.31177068e-01 -1.41478106e-02 -5.94587736e-02 -4.99343649e-02
      -4.24559340e-02 -1.39125399e-02 -3.36855208e-03 7.06781726e-03
      -1.28953555e-03 2.62087341e-02 -7.49391923e-03 -9.24424641e-03
      2.20413320e-02 -5.76121919e-03 -3.39718014e-02 -6.29556691e-03
      -2.58991757e-04 7.25647947e-03 3.15376595e-02 -6.75386190e-03
      -7.13422010e-03 -5.64415660e-03 -5.30736074e-02 -3.20420712e-02
      -2.95620039e-02 -5.06725302e-03 6.20963285e-03 1.84138343e-02
      1.14256367e-02 -1.20518438e-03 -1.94364006e-03 -1.97711829e-02
      -7.34545141e-02 -1.38257137e-02 -1.09760119e-02 -6.92140171e-03
      1.99852660e-02 2.50528045e-02 2.26429068e-02 1.35057643e-02
      -6.31118789e-02 -1.38981757e-03 -2.17154324e-02 -5.59453405e-02
      -1.55911595e-02 4.46355529e-02 -2.79230624e-02 -4.35279757e-02
      -8.82170908e-03 -7.40915257e-03 -2.39661019e-02 -4.26336639e-02
      -3.96060683e-02 -1.87173150e-02 2.27777641e-02 1.92201487e-03
      3.16569116e-03 3.95713411e-02 -2.45778561e-02 -1.67505816e-02
      -3.72206382e-02 -2.79514324e-02 -3.76219340e-02 3.04842442e-02
      5.52197136e-02 5.73624782e-02 3.38756666e-02 -1.42086577e-02
      -2.01988481e-02 -6.38214825e-03 -6.41601160e-03 1.06263952e-02
      6.23336174e-02 -8.45965464e-03 -3.12204454e-02 -9.20106005e-03
      -1.09014101e-02 -1.24307098e-02 -1.19290203e-02 2.23896056e-02
      1.10947238e-02 2.93128435e-02 -6.41958369e-03 6.40478637e-03
      5.31030856e-02 -1.31258117e-02 -1.61363911e-02 -1.19775124e-02
      -1.11059509e-02 3.02140433e-02 2.78723203e-02 1.78532470e-02
      2.80126520e-02 1.79305486e-02 -8.15880392e-03 -1.91087555e-02
      -1.19176777e-02 -5.72629971e-03 -9.37183795e-04 8.48192722e-03
      1.06277317e-02 3.73190804e-03 1.75962492e-03 -2.28393283e-02
      -9.81217101e-02 -2.23928038e-02 -1.09950155e-02 -1.23114903e-02
      3.35230716e-02 3.66230011e-02 4.41123061e-02 2.24173553e-02
      -8.92061740e-02 -2.58619171e-02 -2.36798264e-03 -4.88891173e-03
      -1.85973179e-02 9.31621995e-03 1.45442912e-03 8.09900369e-03
      -8.18020198e-03 -6.18121587e-02 -2.46004779e-02 -2.26648506e-02
      -6.92815287e-03 -1.42844161e-02 3.69359292e-02 2.46726293e-02
      1.93301979e-02 2.54176352e-02 -2.23436691e-02 -1.34234503e-02
      -2.59401891e-02 -4.14383821e-02 -6.44293474e-03 -1.14661641e-02
      5.50529957e-02 7.46503770e-02 4.19574380e-02 -3.60767264e-03
      2.51816353e-03 -3.18701053e-03 -3.26215886e-02 -1.11121638e-02
      -6.08401634e-02 -3.23459357e-02 -1.35065205e-02 -3.23126577e-02
      -6.89795008e-03 -3.81602012e-02 -5.56166470e-03 1.71978883e-02
      1.74476039e-02 4.26437631e-02 5.74490102e-03 1.28432261e-02
      2.99458411e-02 1.15188355e-04 8.15632194e-03 -2.34404132e-02
      -3.08854915e-02 3.83468904e-02 3.26891849e-03 2.82135084e-02
      4.28352468e-02 2.43809018e-02 3.72885028e-04 7.07058888e-03
      -1.90271363e-02 -2.75026746e-02 3.62907420e-03 -3.71787325e-02
      -2.04594377e-02 3.29474476e-03 1.32330982e-02 2.80072019e-02
      -4.23526950e-02 -5.94537985e-03 -1.21994736e-03 -4.54006158e-03
      1.37039050e-02 1.00171594e-02 1.68889295e-02 3.90791520e-03
      -4.98424806e-02 -3.11655439e-02 1.63530633e-02 -1.58338491e-02
      -5.23732267e-02 -3.43323639e-03 -7.61115283e-04 8.59700050e-03
      -9.47363675e-03 -7.63349831e-02 1.76625159e-02 5.17466664e-02
      3.79441539e-03 -2.80913617e-02 -2.05668192e-02 -1.64363661e-03
      1.71060208e-03 -6.28461782e-03 -5.15243374e-02 1.29548050e-02
      -1.34242568e-02 -2.11894736e-02 1.80083723e-03 1.11387402e-03
      1.37446448e-02 3.04836761e-02 -1.57425040e-03 -2.80602127e-02
      2.18221806e-02 -1.45278184e-03 -6.41827062e-02 -7.22296908e-02
      -8.01482126e-02 -6.72781467e-02 -2.99146920e-02 -2.33557727e-02
      2.09087729e-02 6.79722950e-02 8.56826082e-02 -4.81557846e-03
      -9.56104919e-02 -1.06335066e-01 -4.74998355e-02 -8.76371283e-03
      2.63172127e-02 3.93139720e-02 -1.16403180e-03 -7.13895354e-03
      -2.43470129e-02 1.59076471e-02 -3.27255647e-03 9.35102534e-03
      2.51687896e-02 8.82746745e-03 -1.66003744e-03 4.14023846e-02
      -1.11653227e-02 -4.25406806e-02 -3.31303962e-02 -8.63266289e-02
      -5.23007736e-02 -1.23229646e-03 4.49138023e-02 6.59359023e-02
      8.38343352e-02 2.08433904e-02 -2.36679893e-02 -6.51888624e-02
      -8.24071616e-02 -4.19257246e-02 5.98690053e-03 6.79111853e-02
      1.15825385e-01 -2.68838461e-03 1.85122490e-02 -1.20892432e-02
      -4.66178171e-02 -1.94464549e-02 -4.31031408e-03 1.31834263e-03
      -5.64786186e-03 -6.40939400e-02 1.37580670e-02 8.77636969e-02
      9.96077899e-03 -3.60836722e-02 -3.07054445e-02 9.60693578e-04
      3.19587137e-03 -1.34678604e-02 -7.58514181e-02 -3.93931717e-02
      -1.02921203e-03 2.48020835e-04 -6.74295751e-03 -8.95278435e-03
      2.98222317e-03 7.68830243e-04 -6.85674371e-03 -3.72061431e-02
      3.05722170e-02 6.34454889e-03 -4.48666140e-02 -8.57117474e-02
      -9.51073468e-02 -5.65112196e-02 -2.50998884e-02 -9.95520595e-03
      6.50166068e-03 2.79075019e-02 7.63548166e-02 1.97128393e-02
      -8.35710466e-02 -1.06409416e-01 -5.77921234e-02 -2.53807101e-03
      5.64489476e-02 6.14009537e-02 -2.05628742e-02 1.54558625e-02
      3.10845822e-02 1.63931381e-02 6.77625742e-03 2.36285646e-02
      2.17812434e-02 3.40061374e-02 -1.03827883e-02 4.23609056e-02
      -2.31125741e-03 -3.26957181e-02 -5.29332682e-02 -8.42596069e-02
      -4.28461134e-02 -5.75856725e-03 3.26338410e-02 6.42050952e-02
      9.59948152e-02 2.24140212e-02 -3.17626856e-02 -9.91952270e-02
      -1.15951315e-01 -6.85463473e-02 5.98768564e-03 8.36734697e-02
      1.24294296e-01 2.11614147e-02 2.92454194e-03 4.48280852e-03
      -9.44456086e-03 7.98399653e-03 -1.84872781e-03 -4.00310004e-04
      6.67422172e-03 1.22272521e-02 -3.74174351e-03 3.71619686e-03
      1.44671858e-03 -1.73780438e-03 -1.60204228e-02 1.83223933e-02
      1.09182708e-02 6.02224329e-03 -4.02374705e-03 -6.07746094e-02
      -3.17714587e-02 -2.13472284e-02 1.88019108e-02 8.25924203e-02
      2.09135860e-02 -1.98657513e-02 -4.04219665e-02 -6.73083588e-02
      -3.49665768e-02 -2.35478245e-02 -2.06932370e-02 1.47547554e-02
      1.49578750e-01 -1.38223479e-02 -3.01621072e-02 -2.69522909e-02
      -3.73694152e-02 4.08830121e-03 1.65067315e-02 1.33570209e-02
      -1.92462653e-02 -4.54714149e-02 -1.63753424e-02 3.48399654e-02
      2.59952955e-02 -8.39816034e-03 -8.87144133e-02 5.53412130e-03
      6.04071654e-02 8.30180272e-02 5.06353527e-02 6.50538644e-03
      2.05702875e-02 -7.80685470e-02 -1.46832645e-01 -7.98935965e-02
      -2.20931135e-02 -1.59014948e-02 3.94325517e-02 1.69322357e-01
      2.74115130e-02 -9.13287792e-03 -5.32821827e-02 -9.14941132e-02
      1.95725425e-03 5.33622503e-03 8.78132228e-03 7.12873926e-03
      -3.15143284e-03 -5.56411501e-03 -8.39120336e-03 -3.28543992e-03
      -1.62247680e-02 -1.00679055e-01 1.66447517e-02 3.01202256e-02
      5.20858169e-02 1.01159260e-01 3.01097184e-02 -3.37137142e-03
      -5.41007631e-02 -1.28804386e-01 -8.08543414e-02 -4.94757015e-03
      -1.67678445e-04 5.53080253e-03 4.15452607e-02 1.90281514e-02
      2.49973014e-02 6.00270368e-03 -1.04491048e-01 -3.55931669e-02
      -1.94307137e-02 -1.05780922e-02 1.18784057e-02 1.33222699e-01
      1.84943341e-03 -1.41374469e-02 -2.48091947e-02 -3.76490839e-02
      -3.15138996e-02 -3.02193910e-02 -4.75707874e-02 1.39511833e-02
      1.19719252e-01 -2.82718800e-02 -5.67726605e-02 -2.47043762e-02
      -3.20367031e-02 -1.76829100e-02 -8.23422801e-03 -7.08620716e-03
      -1.06233754e-03 4.96182218e-02 -4.79003182e-03 -6.19522249e-03
      2.38860901e-02 -3.99154937e-03 -1.05760753e-01 -7.25810137e-03
      1.31815989e-02 4.67957594e-02 1.14452079e-01 2.57989634e-02
      1.29015669e-02 -5.47176264e-02 -1.03770286e-01 -7.04698563e-02
      -3.87173072e-02 -2.81159617e-02 3.13933603e-02 1.10661358e-01
      3.86749990e-02 1.17915915e-02 -4.46503423e-02 -6.61375746e-02
      -1.62972491e-02 -3.60042229e-03 1.83876511e-02 1.23486237e-03
      2.83210073e-02 -8.08754645e-04 1.13056973e-03 4.77287546e-02
      2.64168344e-03 -7.11788386e-02 3.43470764e-03 1.01305461e-02
      2.15553977e-02 6.02876656e-02 1.60204861e-02 5.95849566e-03
      -1.57513358e-02 -1.02432676e-01 -7.10462481e-02 -1.39766736e-02
      -4.94869798e-03 -3.51665728e-03 3.07900403e-02 2.22113598e-02
      4.19642963e-02 1.66301224e-02 -4.67556082e-02 -4.98236343e-02
      -2.98793224e-04 6.11167075e-03 5.00150770e-03 -2.50216993e-03
      2.00658268e-03 5.99046983e-03 7.40118884e-03 -2.99916584e-02
      -3.19344737e-03 -9.12091974e-03 -2.25788038e-02 1.68244384e-04
      6.40892833e-02 -1.21247312e-02 -2.35302802e-02 1.04500854e-03
      6.47395209e-04 -3.82599197e-02 -1.81277245e-02 3.87887238e-03
      -5.86328283e-03 4.83683795e-02 4.77916561e-03 8.26618541e-03
      4.38449569e-02 -2.68833041e-02 8.20045453e-03 -6.50585815e-03
      -1.02218671e-03 -8.90774373e-03 5.95970172e-03 2.12156884e-02
      2.59511694e-02 1.63972601e-02 6.39045984e-03 -3.23301814e-02
      -1.51739465e-02 -9.82362777e-03 1.56252086e-03 6.25199601e-02
      -2.15652725e-03 -2.24380270e-02 -6.23076363e-03 -8.78696516e-03
      -1.07832765e-02 1.34409107e-02 5.63105159e-02 3.68721150e-02
      1.93979237e-02 -1.43413702e-02 6.16189511e-03 3.65741923e-02
      -2.28693578e-02 -3.36609147e-02 -1.25854174e-02 7.20588351e-03
      8.30991417e-02 4.02449034e-02 1.22003974e-02 1.54134426e-02
      1.08411480e-02 -4.62202877e-02 -4.83832881e-02 -6.62288163e-03
      -1.52753212e-03 -2.64774868e-03 1.53550564e-03 4.81858943e-03
      1.48970000e-02 7.90072326e-03 -4.88872081e-02 -4.34715487e-02
      1.94154531e-02 1.76869873e-02 1.40951462e-02 -6.03909930e-03
      2.64395168e-03 3.43637494e-03 8.91880365e-04 -1.42993126e-02
      -6.79057464e-02 1.50079606e-02 5.83067443e-03 2.47118007e-02
      8.95440392e-03 -1.72858403e-04 -9.69429873e-03 -2.07755789e-02
      -9.56880525e-02 -1.75327100e-02 -8.89134966e-03 7.56180426e-03
      -3.53527744e-03 3.16019319e-02 1.09255016e-02 1.25796879e-02
      1.99940931e-02 -4.19135485e-03 2.65624411e-02 -6.72824355e-03
      -1.95709523e-02 -3.00089875e-03 -1.94692181e-03 2.70988438e-02
      3.52850594e-02 1.43693527e-02 1.16674891e-02 3.89873423e-02
      -8.15860368e-03 -2.07370110e-02 4.61545819e-03 -2.71677263e-02
      -1.55239543e-02 -9.15655028e-03 -8.93707294e-03 -8.56231258e-04
      -3.68051156e-02 1.72491465e-02 4.27995846e-02 5.17457277e-02
      4.72948179e-02 -1.41977787e-03 6.37677312e-03 3.98749597e-02
      -8.35007615e-03 -3.27935033e-02 -2.34024338e-02 8.74891970e-03
      6.03117831e-02 2.11457275e-02 3.05655431e-02 4.74830642e-02
      3.07531804e-02 -1.97086986e-02 -2.11397596e-02 -2.23052204e-02
      -2.29493733e-02 -9.75260045e-04 -5.52638136e-02 -3.01179569e-02
      1.46547286e-02 5.59834167e-02 4.87095071e-03 -3.42130996e-02
      2.01525707e-02 1.22200185e-02 1.06477076e-02 -1.83246483e-03
      9.84310871e-04 -2.33493699e-03 -5.54041471e-03 -3.93854827e-02
      -1.04605608e-01 4.26780991e-03 1.67874829e-03 3.49635109e-02
      3.16066518e-02 3.41161410e-03 -3.39315087e-03 -1.41746085e-02
      -9.86024812e-02 -9.47200060e-02 -1.75336935e-02 -8.69441021e-04
      -7.17461063e-03 5.20549947e-03 -3.46728461e-03 8.66967067e-03
      3.86069752e-02 -2.35852897e-02 1.89377014e-02 -4.99700801e-03
      -1.49029186e-02 3.04052816e-03 -5.99147892e-03 2.99435575e-03
      1.01579865e-02 -2.41760886e-03 2.61939596e-04 5.23457490e-02
      -8.72357842e-03 -4.34486195e-02 -2.88912896e-02 -7.48750567e-02
      -3.98952849e-02 -1.93952546e-02 -4.56852792e-03 1.69049464e-02
      8.22583362e-02 3.20463255e-02 -1.30151464e-02 -5.23584820e-02
      -6.90104961e-02 -3.20735388e-02 -5.25509147e-03 2.44887061e-02
      5.49098514e-02 -2.98464261e-02 -2.08675303e-02 -4.10174280e-02
      3.10428720e-02 8.30261968e-03 1.04110045e-02 3.76591645e-02
      2.08511818e-02 -3.18851471e-02 1.26434648e-02 -4.71194498e-02
      -4.04361524e-02 -5.24344146e-02 -9.34259668e-02 -7.42757320e-02
      2.42656842e-03 8.56546462e-02 3.60740274e-02 5.09579778e-02
      -9.83914454e-03 -2.83925999e-02 -7.33084679e-02 -9.65742618e-02
      -6.84075430e-02 1.64981857e-02 9.55712870e-02 1.16222307e-01
      -7.66885951e-02 -5.96231315e-03 -1.09749578e-03 7.93080963e-03
      1.59180090e-02 2.18760781e-03 4.41536866e-03 4.91390843e-03
      -7.27012977e-02 -1.10309973e-01 -3.52467895e-02 -1.67413149e-03
      -1.00176567e-02 -6.99753361e-03 -2.05305386e-02 5.59017202e-03
      8.64490792e-02 -3.75612685e-03 -7.46816695e-02 -1.76344700e-02
      1.69034128e-03 -4.18034993e-04 -3.51165188e-03 -1.47169838e-02
      2.08008057e-03 6.49398789e-02 1.50805973e-02 5.65263741e-02
      -5.25350100e-04 -2.95180548e-02 -3.89777310e-02 -6.39312565e-02
      -3.05580571e-02 -1.04677156e-02 4.82414616e-03 1.39983483e-02
      8.28534961e-02 7.08983690e-02 7.15508172e-03 -7.41055757e-02
      -1.02402888e-01 -4.13408652e-02 -9.31945920e-04 4.82492484e-02
      7.06638470e-02 7.23484950e-03 1.17385471e-02 1.88396312e-02
      8.05879477e-03 1.00369202e-02 8.48971214e-03 8.29957798e-03
      1.19949393e-02 5.00952592e-03 3.68401185e-02 -1.95849836e-02
      -3.42470706e-02 -7.69759119e-02 -1.07833855e-01 -7.95612559e-02
      -2.90296506e-03 8.65872875e-02 6.65408671e-02 2.14009583e-02
      -9.67338309e-03 -4.08128947e-02 -8.50302950e-02 -7.93138966e-02
      -8.95268768e-02 1.22591145e-02 1.13605805e-01 4.57616337e-02
      -7.77752418e-03 -1.89095587e-02 -9.12549440e-03 -1.43925622e-02
      1.32459095e-02 -1.05910860e-02 -6.54024305e-03 1.69797409e-02
      -2.97472277e-03 -6.42233863e-02 -1.80059709e-02 -2.54177302e-03
      -6.96233381e-03 -1.35545013e-02 -2.24486608e-02 -4.37355693e-03
      4.93442230e-02 1.44865811e-02 -8.48102570e-02 -5.90867102e-02
      -4.51169582e-03 6.40584109e-03 1.42049380e-02 -1.79910082e-02
      5.16435457e-03 8.66981819e-02 -4.70368983e-03 -7.24545941e-02
      -3.54794823e-02 -2.25133095e-02 -1.00394143e-02 4.83924843e-04
      -1.37121044e-02 -1.10192904e-02 6.96518458e-03 -4.36967760e-02</_>
    <_>
      -2.01703180e-04 -5.99764148e-03 1.28223025e-03 3.92778451e-03
      9.69662433e-05 5.43413498e-03 4.44078731e-04 2.17209570e-03
      2.58258753e-03 3.58000807e-02 -3.50358686e-03 -2.90077068e-02
      2.23091319e-02 8.77151918e-03 2.12436225e-02 3.46352234e-02
      7.42019936e-02 2.99901683e-02 2.47045495e-02 5.61840250e-04
      -7.01909931e-03 -1.31321112e-02 2.19881255e-02 2.49762181e-03
      -3.33395638e-02 -1.88841261e-02 -4.39496227e-02 -1.33685753e-01
      -5.19879162e-02 -2.75464505e-02 -2.74849664e-02 3.19364760e-03
      8.25523119e-03 2.84740590e-02 7.21549317e-02 -5.07186800e-02
      -1.01828026e-02 -1.02159671e-01 -4.68829572e-02 8.32372010e-02
      1.95872281e-02 1.46424240e-02 3.72701436e-02 1.06513247e-01
      4.39472077e-03 2.50910278e-02 -4.24012654e-02 -7.79522862e-03
      5.36080487e-02 4.00915667e-02 4.70106117e-02 -2.51354277e-02
      -7.60034025e-02 -4.83286977e-02 -9.71351489e-02 -7.49983191e-02
      -7.36588910e-02 -3.94035876e-02 1.44697214e-02 1.93265676e-02
      3.47421430e-02 5.79930954e-02 -3.75293307e-02 -8.74168873e-02
      -1.12167403e-01 -1.46599552e-02 1.05393082e-01 7.62893409e-02
      2.81747840e-02 4.38539162e-02 1.03338562e-01 -3.30576785e-02
      4.15751524e-02 1.67600196e-02 4.52009924e-02 9.32146236e-02
      6.49795234e-02 -7.79125979e-03 -5.77092245e-02 -8.04424807e-02
      -2.95111276e-02 1.08865704e-02 -4.69652470e-03 -1.30801173e-02
      2.55970331e-03 6.25870982e-03 2.67079123e-03 -1.51235610e-04
      1.56966690e-02 -1.91334318e-02 4.83887047e-02 7.60470377e-03
      -8.33410770e-03 -2.12407298e-02 1.68236755e-02 7.64916232e-03
      -4.79976237e-02 -2.97443978e-02 -4.48467210e-02 1.65718403e-02
      6.07909728e-03 2.71590543e-03 6.66623097e-03 -6.19396009e-03
      8.31566658e-03 8.66361987e-03 1.30046476e-02 -1.19726583e-02
      -4.44460735e-02 -7.60360509e-02 -4.30014692e-02 5.30412979e-02
      4.88889292e-02 1.82533339e-02 1.11340107e-02 5.44323288e-02
      -3.42096691e-03 2.07095090e-02 1.52827671e-03 2.07619630e-02
      5.19922450e-02 1.40066929e-02 5.53689636e-02 -5.51120006e-02
      -6.88574910e-02 -1.74144972e-02 -1.05708810e-02 -6.27029389e-02
      2.01166552e-02 3.58603448e-02 1.43304188e-02 3.85894738e-02
      -7.65590509e-03 -1.39979618e-02 -1.49332136e-02 -3.69996838e-02
      -2.77913231e-02 2.01758109e-02 7.11785555e-02 6.44711033e-02
      5.33530489e-03 -1.10955164e-02 -5.16745867e-03 -1.94504838e-02
      5.83859300e-03 2.70461719e-02 4.49274220e-02 8.79675895e-02
      3.36097404e-02 -2.93596629e-02 -8.21114704e-02 -1.14851065e-01
      -7.15061231e-03 -4.65622777e-03 -5.27145304e-02 -7.53245736e-03
      2.14476779e-04 -1.07323620e-02 5.52903535e-03 7.96230961e-05
      1.35141825e-02 6.97277188e-02 2.87879035e-02 4.70534107e-03
      -3.26357386e-03 -3.75136617e-03 8.38664419e-04 6.84141973e-03
      -1.02350740e-02 -4.12134407e-03 -1.52083524e-02 2.57881023e-02
      3.26789869e-03 6.11690804e-03 7.46308884e-04 -1.29180243e-02
      7.85995275e-03 1.82827525e-02 1.95483174e-02 1.23563474e-02
      1.03520583e-02 -1.63762309e-02 -1.14660719e-02 -2.17732638e-02
      -2.38686614e-02 -6.07955735e-03 -1.56942371e-03 -3.44299106e-03
      7.51984166e-03 2.39422694e-02 1.82882359e-03 2.56778337e-02
      5.58539331e-02 -6.54595392e-03 2.36590300e-02 -7.30563002e-03
      -4.32145037e-02 -4.18165289e-02 5.35029778e-03 -1.34869263e-01
      -3.53748351e-02 3.95368338e-02 5.81525639e-02 7.77258351e-02
      2.38686297e-02 4.00689058e-02 1.36015126e-02 -3.43254507e-02
      -9.20791402e-02 -5.64000122e-02 7.66559690e-03 -2.47938856e-02
      1.47687066e-02 1.67952366e-02 3.58084515e-02 3.74726504e-02
      2.74482202e-02 4.03958693e-04 5.50461840e-03 1.82681978e-02
      6.42095925e-03 -1.51018221e-02 -2.59742104e-02 -3.01792771e-02
      3.15169916e-02 -1.03358291e-02 -1.06860876e-01 -2.31783255e-03
      1.96169317e-02 4.18083966e-02 3.85731868e-02 2.98987180e-02
      5.18420711e-02 3.17251980e-02 -1.20177880e-01 -4.70153335e-03
      3.44862752e-02 5.91509193e-02 1.32901266e-01 3.86689380e-02
      3.28768641e-02 2.94180512e-02 -7.57414252e-02 1.70158353e-02
      -3.67983058e-03 7.59526272e-04 -6.81877322e-03 -9.34845675e-03
      1.34843122e-03 8.70059337e-03 7.60059478e-03 2.17057369e-03
      -1.10744033e-02 -1.62365772e-02 -1.71909947e-02 -2.39722375e-02
      -2.59468928e-02 -1.20622283e-02 -1.50032165e-02 -1.84700768e-02
      3.42475548e-02 -3.97168733e-02 -7.93498196e-03 -2.80489307e-03
      -8.13343737e-04 -5.33198399e-05 -2.46182247e-03 -4.62949462e-03
      -5.67581225e-03 -2.63368171e-02 -5.27326874e-02 -1.01841085e-01
      -3.97858396e-02 1.07585415e-02 2.35753339e-02 4.75977585e-02
      2.90256143e-02 3.66162658e-02 6.82878420e-02 3.72716179e-03
      -6.55112835e-03 -3.50458473e-02 1.34148495e-02 -2.97427531e-02
      -2.44522449e-02 -3.36356014e-02 -1.23187602e-02 4.71283160e-02
      6.77149603e-03 3.36404853e-02 -8.19688011e-03 -1.53083715e-03
      -2.27512084e-02 -1.71460863e-02 -2.55471841e-02 -3.65909599e-02
      -6.18082564e-03 -3.06778308e-02 -4.30016704e-02 7.44240265e-03
      2.00468525e-02 4.64896038e-02 2.50264723e-02 2.53401175e-02
      2.71646064e-02 6.38756678e-02 -7.00404942e-02 3.39737460e-02
      6.31273091e-02 9.72290039e-02 1.42078057e-01 4.98746373e-02
      2.91782264e-02 3.19362506e-02 -8.41484889e-02 -2.50621443e-03
      1.23438495e-03 -7.57052843e-03 3.24258674e-03 1.42221013e-02
      -3.59009439e-03 -8.08756053e-03 -6.68134307e-03 -3.51923220e-02
      -4.40024724e-03 -1.93842000e-03 -5.69468504e-03 -4.69650747e-03
      -5.89042855e-03 -5.70543204e-03 -9.29974671e-03 -1.08980583e-02
      2.17402750e-03 -3.56979333e-02 -2.67293677e-02 -6.01563556e-03
      -9.13914351e-04 3.61466780e-03 7.24053069e-04 -1.48101430e-03
      1.28742168e-03 -1.47665723e-03 -5.97511306e-02 -4.36269492e-02
      -8.44802242e-03 -1.38471788e-03 2.94756796e-03 5.95193682e-03
      3.25326039e-03 1.25814527e-02 2.44279336e-02 1.11199543e-02
      3.47793326e-02 8.11937789e-04 1.26945172e-02 -1.88792683e-02
      -2.13913545e-02 -3.19037400e-02 -2.99778748e-02 3.80694456e-02
      2.23846082e-02 5.17349020e-02 -2.27597207e-02 -6.01515966e-03
      -1.44250235e-02 -9.59282555e-03 -1.49793671e-02 -3.04814614e-02
      -7.60107534e-03 -2.74375472e-02 8.11851677e-03 -4.86425450e-03
      -1.21731882e-03 3.24564166e-02 2.51262523e-02 9.78001580e-03
      3.54710743e-02 8.92128237e-03 -4.71006483e-02 1.93739422e-02
      2.04338450e-02 3.43336128e-02 7.42609054e-02 1.50705157e-02
      3.22396983e-03 5.58437174e-03 -5.33156879e-02 -4.62288298e-02
      -9.72366892e-03 -3.23571675e-02 -6.70696003e-03 1.86999561e-03
      -1.16163092e-02 -1.41896904e-02 -1.55093651e-02 -5.05137928e-02
      1.93349682e-02 -6.46732573e-04 -2.34469082e-02 -1.11765675e-02
      -2.00152341e-02 -9.66214109e-03 -3.14063858e-03 -8.53673927e-03
      -3.54579836e-02 -3.65751125e-02 -3.59970704e-02 -5.61563252e-03
      -6.84432162e-04 1.27499690e-03 2.71299738e-03 5.74219797e-04
      6.56722113e-03 5.51588088e-03 -8.14102888e-02 -6.65021762e-02
      -1.18783824e-02 -6.71615032e-03 1.03915781e-02 2.52423491e-02
      1.25769172e-02 2.35922597e-02 4.47865762e-02 -1.48942005e-02
      5.88722294e-03 2.04617735e-02 -1.23273516e-02 2.14063022e-02
      4.46252003e-02 1.31675312e-02 -4.17187950e-03 -3.15822125e-03
      1.53702619e-02 -1.68810096e-02 -1.05065806e-02 -3.73774674e-03
      -3.37199192e-04 6.05230685e-03 1.89680827e-03 3.51223256e-03
      1.64169341e-03 1.02698300e-02 4.31267591e-03 -6.23705145e-03
      -3.07926293e-02 2.96793729e-02 5.31169362e-02 3.57051827e-02
      7.75697455e-02 -7.43002817e-02 -4.02955897e-02 8.09075311e-02
      7.22658727e-03 -5.94714992e-02 -7.30709210e-02 7.76853645e-03
      9.79039073e-03 -1.16012045e-04 -4.78256568e-02 2.61329412e-02
      -7.29676522e-03 -2.23511476e-02 -6.53662859e-03 -6.45821309e-03
      -8.64127744e-03 -6.02277461e-03 -9.47423838e-03 -2.81152371e-02
      -5.58946021e-02 -1.81217790e-02 -6.07985929e-02 -5.12747057e-02
      -8.18349421e-02 -2.33871248e-02 -1.29436310e-02 -1.84210502e-02
      -6.86842203e-02 -8.95344652e-03 -8.13325576e-04 -3.79417352e-02
      -5.76628856e-02 -7.50467703e-02 -2.13075709e-02 -1.30194826e-02
      -1.34098632e-02 -2.23371405e-02 -8.40023533e-02 -3.42908278e-02
      -2.25493927e-02 -1.70176588e-02 9.47340205e-03 5.42571489e-03
      1.82644632e-02 4.39578220e-02 -4.20952104e-02 -8.09335485e-02
      -8.79132822e-02 -3.25289331e-02 5.73333278e-02 3.84691134e-02
      5.02716005e-03 4.67491336e-02 1.26540855e-01 5.24879107e-03
      2.52028815e-02 -1.16247814e-02 5.99382538e-03 6.90802187e-02
      2.69329790e-02 1.15537904e-02 -1.48683442e-02 -5.96829168e-02
      -2.43536010e-02 -1.02678351e-01 -1.65665001e-01 -1.95510224e-01
      -1.06908679e-01 -3.75912362e-03 2.93971114e-02 5.53363748e-02
      1.08425416e-01 -3.85589525e-02 -5.98484613e-02 -1.37141526e-01
      -8.18265304e-02 9.52539071e-02 8.84422660e-02 9.33854356e-02
      6.74381778e-02 8.97555351e-02 -3.30088027e-02 3.81041728e-02
      2.86058281e-02 8.02048519e-02 1.42134503e-01 7.99422190e-02
      -2.60473844e-02 -5.20478636e-02 -9.81198102e-02 -2.80068070e-02
      -3.80508900e-02 -7.66563267e-02 -1.39090389e-01 -5.73692769e-02
      -2.87238527e-02 -1.27771338e-02 -3.47797619e-03 2.91797668e-02
      2.06890311e-02 -4.94196340e-02 -1.11039832e-01 -1.51439399e-01
      -1.35958632e-02 9.90912020e-02 1.04537331e-01 6.66750595e-02
      5.75096197e-02 6.34025112e-02 2.51170918e-02 -3.52320448e-02
      1.33471098e-03 1.18619297e-02 3.42331640e-02 -3.21612544e-02
      -1.62962954e-02 2.01676767e-02 1.39866456e-01 -2.46843901e-02
      -3.96141112e-02 -1.26185948e-02 3.05506904e-02 1.55684594e-02
      5.76052444e-05 2.02725315e-03 1.13381604e-02 -4.09251172e-03
      1.36256414e-02 -1.09381359e-02 5.78116812e-03 7.10539222e-02
      8.89274012e-03 9.72787943e-03 -3.07063702e-02 -1.03983201e-01
      -6.16071187e-02 -3.99906971e-02 -3.83976959e-02 4.49911691e-03
      1.34646827e-02 1.88015518e-03 1.04977433e-02 -1.85153987e-02
      -2.17888355e-02 -7.02706305e-03 -1.06595486e-01 -5.46311885e-02
      3.87791777e-03 8.81554186e-02 8.49547759e-02 2.18228363e-02
      -2.42017377e-02 -1.98245719e-02 -8.42278823e-02 8.98122508e-03
      -8.26912280e-03 5.78729212e-02 1.08906768e-01 4.11996692e-02
      -5.85403778e-02 -7.78351203e-02 -1.04627326e-01 2.31066681e-02
      3.28255678e-03 -8.35206211e-02 -6.39751181e-03 -1.05310064e-02
      -2.40910407e-02 3.27518792e-03 1.32509675e-02 3.82116213e-02
      5.14508076e-02 -1.46356653e-02 -2.49944981e-02 -2.60934755e-02
      1.39979308e-03 3.87685671e-02 2.26367284e-02 1.72571000e-02
      7.54654733e-03 1.66011341e-02 1.77128445e-02 -1.14492759e-01
      -2.66867981e-04 1.56131983e-02 1.90475769e-02 -6.75300807e-02
      -5.10595590e-02 2.92198900e-02 1.09437078e-01 1.96955935e-03
      -1.79809742e-02 2.23295242e-02 9.55095608e-03 6.13433402e-03
      5.10819955e-03 4.19732695e-03 1.39928106e-02 1.11778811e-01
      -1.19171292e-02 -1.72883878e-03 7.27333780e-03 2.65025403e-02
      -2.44171428e-03 1.54100789e-03 -1.61856990e-02 -4.08899561e-02
      -5.07387333e-02 -6.38562888e-02 -1.16958104e-01 -2.44655441e-02
      1.68889966e-02 1.39810592e-02 3.02980579e-02 -1.78770404e-02
      -1.58933718e-02 1.93665139e-02 -1.00353479e-01 -5.58275916e-02
      -1.79927405e-02 1.78398956e-02 1.76176336e-02 7.90460594e-03
      7.20701506e-03 2.11835336e-02 -9.52284597e-03 -2.18304200e-03
      -3.75280268e-02 -4.77427710e-03 9.33524035e-03 -1.42713394e-02
      -4.94055040e-02 -5.40594086e-02 -3.52880135e-02 2.20115129e-02
      3.51618929e-03 -1.08329140e-01 3.27836648e-02 2.15299763e-02
      6.70157969e-02 6.30450919e-02 6.48494884e-02 6.96734488e-02
      1.53643324e-03 -1.28141537e-01 2.86198892e-02 7.17376396e-02
      9.83903110e-02 2.70578831e-01 1.14162490e-01 5.69280945e-02
      6.90154079e-03 -1.34899288e-01 -3.12293563e-02 -6.41070679e-02
      -1.54343154e-03 3.34555074e-03 -3.07076611e-04 -1.96450260e-02
      -1.62381213e-02 1.70959886e-02 1.41157851e-01 2.99209412e-02
      2.45877430e-02 7.17785209e-02 3.70846950e-02 5.78710102e-02
      2.56642252e-02 1.11441109e-02 7.22815050e-03 7.16458037e-02
      -1.27263770e-01 3.53912078e-02 4.69306596e-02 4.92404141e-02
      1.48090273e-01 8.12457800e-02 1.47163393e-02 -2.77019944e-03
      -1.16795450e-01 -3.94097045e-02 -6.15123734e-02 -1.52473878e-02
      1.57444384e-02 2.16770284e-02 2.55093705e-02 1.01681734e-02
      1.57963596e-02 5.10067157e-02 -7.52223060e-02 -1.08403051e-02
      3.00143799e-03 4.81589884e-02 2.87993960e-02 4.39883821e-04
      -5.23264287e-03 1.89581197e-02 -2.69555692e-02 8.91435612e-03
      2.50474531e-02 -5.22547262e-03 1.39617384e-03 -4.71952464e-03
      -6.97442703e-03 -1.08330678e-02 -1.43848211e-02 -4.45256978e-02
      -4.44894508e-02 -3.26202810e-02 4.91530858e-02 5.20788878e-02
      1.29354224e-01 7.01315254e-02 5.95894381e-02 4.29654270e-02
      3.68356295e-02 -5.13567366e-02 1.02189191e-01 1.48531124e-01
      1.69674993e-01 2.77014703e-01 2.05466107e-01 6.19070344e-02
      5.97762503e-03 -5.18495180e-02 -1.17050432e-01 -2.76812278e-02
      -1.22512495e-02 5.52804023e-03 4.12211232e-02 5.13818720e-03
      -2.00300720e-02 -1.70211438e-02 -1.02764301e-01 -8.32131039e-03
      2.97932569e-02 4.69591506e-02 2.85495855e-02 5.70835806e-02
      2.67933942e-02 9.57588758e-03 4.92217892e-04 2.99904495e-02
      -1.55569702e-01 6.77561983e-02 6.89423606e-02 9.69604254e-02
      2.48155564e-01 1.76752508e-01 2.71298550e-02 -4.07069875e-03
      -2.03394130e-01 -2.23380834e-01 -3.50085413e-03 2.15364969e-03
      1.16713960e-02 3.61560397e-02 2.26284470e-02 -6.00289262e-04
      -5.79219777e-03 -2.09294125e-01 5.05942814e-02 5.00952899e-02
      1.79326367e-02 3.95140946e-02 4.80495468e-02 8.16245098e-04
      -8.98576062e-03 1.46784820e-03 4.22550291e-02 5.11732772e-02
      6.03460856e-02 -1.52849061e-02 -1.96634559e-03 -8.34361126e-04
      -3.65149416e-03 -7.35735334e-03 -1.38293644e-02 2.50200480e-02
      3.03112678e-02 6.18969575e-02 -2.92451656e-03 -1.15942908e-03
      6.67899195e-03 9.79267713e-03 5.82123687e-03 1.48116332e-02
      4.56894562e-02 -1.30486675e-02 8.41046721e-02 7.03685358e-02
      1.20548300e-01 2.09775522e-01 1.11474149e-01 2.21493952e-02
      1.94476778e-03 -6.11179844e-02 4.17432562e-03 -2.40085255e-02
      -6.09009638e-02 -1.02274837e-02 2.49231160e-02 -2.31324006e-02
      -4.14267667e-02 -3.30435149e-02 -1.09002925e-02 -4.89782915e-03
      -5.03678322e-02 -6.11964203e-02 -2.91785747e-02 -4.52061221e-02
      -3.12824287e-02 -1.63281411e-02 -3.35357785e-02 -8.57535303e-02
      -1.28211722e-01 3.48856896e-02 2.53648888e-02 4.58444431e-02
      1.30882323e-01 8.41880143e-02 1.22936806e-02 -5.93527104e-04
      -1.38130784e-01 -2.47441202e-01 -1.82690471e-02 3.54883075e-03
      1.03494171e-02 2.81683765e-02 8.53584800e-03 -1.19620550e-03
      -7.16621289e-03 -2.29993179e-01 -1.56694502e-01 -3.46426181e-02
      -5.27974591e-03 -3.72306351e-03 -9.44188610e-03 -5.25637995e-03
      3.16547230e-03 -4.38921340e-03 -1.21733464e-01 1.25353932e-01
      4.65669818e-02 -8.55497271e-03 -3.93895432e-03 -6.93028502e-04
      1.51370838e-03 1.10137952e-03 -1.00072275e-03 7.32916743e-02
      4.19530645e-02 1.57602578e-01 1.32588567e-02 -2.72989506e-03
      1.77801624e-02 4.60543223e-02 2.78295986e-02 5.70016466e-02
      3.56615297e-02 4.29347791e-02 1.15206376e-01 1.90922264e-02
      -2.42890958e-02 -3.72284241e-02 2.52179289e-03 7.27852527e-03
      6.05213549e-03 -1.37530752e-02 1.21957753e-02 -1.13580311e-02
      -4.91067283e-02 -1.44619690e-02 -1.94587503e-02 -2.75145564e-02
      -2.17127483e-02 -2.21661031e-02 -2.35521309e-02 4.88526002e-02
      -3.93620022e-02 -1.32547602e-01 -1.02126107e-01 -1.57824278e-01
      -7.60925412e-02 -5.32574691e-02 -8.71731862e-02 -5.85521832e-02
      -3.28209884e-02 -2.36369967e-02 -6.94771037e-02 -1.15089163e-01
      -1.62274614e-01 -5.22184819e-02 -3.73138934e-02 -4.65807989e-02
      -5.24059087e-02 -1.60422355e-01 -1.95690244e-02 4.20935947e-04
      1.01395452e-03 -2.41331570e-03 -6.93697715e-03 5.16375294e-04
      -4.32031276e-03 -1.33795679e-01 -2.20991924e-01 -6.18259534e-02
      -1.61449630e-02 -2.19072066e-02 -3.52734327e-02 -1.42799849e-02
      5.74313453e-04 -9.33494046e-03 -1.56850472e-01 -6.48139492e-02
      -2.11874209e-02 -1.24319410e-02 -1.56678092e-02 -5.02530821e-02
      -1.46099245e-02 -1.28782047e-02 -9.02913604e-03 -2.01159678e-02</_>
    <_>
      -1.67846531e-02 -5.02334163e-03 -2.63922624e-02 -1.24024367e-02
      7.08276499e-03 1.01179024e-02 1.45124225e-02 2.11121067e-02
